{"learner":{"attributes":{"scikit_learn":"{\"_estimator_type\": \"classifier\"}"},"feature_names":[],"feature_types":[],"gradient_booster":{"model":{"gbtree_model_param":{"num_parallel_tree":"1","num_trees":"100"},"iteration_indptr":[0,1,2,3,4,5,6,7,8,9,10,11,12,13,14,15,16,17,18,19,20,21,22,23,24,25,26,27,28,29,30,31,32,33,34,35,36,37,38,39,40,41,42,43,44,45,46,47,48,49,50,51,52,53,54,55,56,57,58,59,60,61,62,63,64,65,66,67,68,69,70,71,72,73,74,75,76,77,78,79,80,81,82,83,84,85,86,87,88,89,90,91,92,93,94,95,96,97,98,99,100],"tree_info":[0,0,0,0,0,0,0,0,0,0,0,0,0,0,0,0,0,0,0,0,0,0,0,0,0,0,0,0,0,0,0,0,0,0,0,0,0,0,0,0,0,0,0,0,0,0,0,0,0,0,0,0,0,0,0,0,0,0,0,0,0,0,0,0,0,0,0,0,0,0,0,0,0,0,0,0,0,0,0,0,0,0,0,0,0,0,0,0,0,0,0,0,0,0,0,0,0,0,0,0],"trees":[{"base_weights":[3.9450555E-8,-4.2419967E-1,3.4783033E-1,1.7376494E-1,-6.629744E-1,-7.8751856E-1,5.020692E-1,-6.5346533E-1,7.3696613E-1,-2.129709E-1,-9.8585916E-1,1.4814842E-2,-4.0000004E-1,8.2247573E-1,-5.363981E-2,-4.0000004E-1,1.24260366E-1,1.1705996E0,-1.16790496E-1,2.1290787E-1,-2.9748836E-1,-1.1548947E0,1.5374655E-1,1.5374655E-1,-1.4790697E-1,1.7751511E-2,1.0019655E0,5.630027E-1,-4.2633742E-1,7.0617296E-2,4.3126968E-1,2.3516735E-1,-4.925975E-2,-9.610389E-2,-3.8723722E-1,2.4398525E-1,-1.6774535E-1,3.9179978E-1,1.9576226E-1,-4.1733176E-2,3.2684034E-1,-3.431952E-2,-3.6E-1],"categories":[],"categories_nodes":[],"categories_segments":[],"categories_sizes":[],"default_left":[0,0,0,0,0,0,0,0,0,0,0,0,0,0,0,0,0,0,0,0,0,0,0,0,0,0,0,0,0,0,0,0,0,0,0,0,0,0,0,0,0,0,0],"id":0,"left_children":[1,3,5,7,9,11,13,15,17,19,21,23,-1,25,27,-1,-1,29,-1,31,-1,33,-1,-1,-1,35,37,39,41,-1,-1,-1,-1,-1,-1,-1,-1,-1,-1,-1,-1,-1,-1],"loss_changes":[1.040224E1,4.6502934E0,7.1788034E0,5.0736237E0,3.118371E0,2.2191846E0,6.2251415E0,3.8349445E0,3.5491397E0,3.8075233E0,3.9000254E0,1.0165398E0,0E0,3.1714754E0,3.3734868E0,0E0,0E0,8.657036E-1,0E0,1.8155355E0,0E0,9.5251846E-1,0E0,0E0,0E0,2.770023E0,1.0638103E0,2.2093925E0,2.050951E0,0E0,0E0,0E0,0E0,0E0,0E0,0E0,0E0,0E0,0E0,0E0,0E0,0E0,0E0],"parents":[2147483647,0,0,1,1,2,2,3,3,4,4,5,5,6,6,7,7,8,8,9,9,10,10,11,11,13,13,14,14,17,17,19,19,21,21,25,25,26,26,27,27,28,28],"right_children":[2,4,6,8,10,12,14,16,18,20,22,24,-1,26,28,-1,-1,30,-1,32,-1,34,-1,-1,-1,36,38,40,42,-1,-1,-1,-1,-1,-1,-1,-1,-1,-1,-1,-1,-1,-1],"split_conditions":[1.512E-4,6.0561585E-1,5.348496E-1,5.332317E-1,1.5778079E1,1.5407653E1,2.226E-4,1.5776877E1,5.31524E1,1.427E-4,9.414078E-1,5.18703E1,-4.0000004E-1,4.29995E1,1.4636992E1,-4.0000004E-1,1.24260366E-1,1.111E-4,-1.16790496E-1,7.931316E-1,-2.9748836E-1,4.29994E1,1.5374655E-1,1.5374655E-1,-1.4790697E-1,6.99424E-1,8.0264723E-1,1.3394778E1,5.18712E1,7.0617296E-2,4.3126968E-1,2.3516735E-1,-4.925975E-2,-9.610389E-2,-3.8723722E-1,2.4398525E-1,-1.6774535E-1,3.9179978E-1,1.9576226E-1,-4.1733176E-2,3.2684034E-1,-3.431952E-2,-3.6E-1],"split_indices":[1,3,3,3,2,2,1,2,0,1,3,0,0,0,2,0,0,1,0,3,0,0,0,0,0,3,3,2,0,0,0,0,0,0,0,0,0,0,0,0,0,0,0],"split_type":[0,0,0,0,0,0,0,0,0,0,0,0,0,0,0,0,0,0,0,0,0,0,0,0,0,0,0,0,0,0,0,0,0,0,0,0,0,0,0,0,0,0,0],"sum_hessian":[6.85E1,3.076306E1,3.7736942E1,8.856343E0,2.1906717E1,4.022388E0,3.3714554E1,3.522388E0,5.3339553E0,9.845149E0,1.2061567E1,2.022388E0,2E0,2.1080225E1,1.2634329E1,2E0,1.5223881E0,3.8227613E0,1.511194E0,6.8339553E0,3.011194E0,1.1044776E1,1.0167911E0,1.0167911E0,1.005597E0,4.044776E0,1.7035448E1,4.5671644E0,8.067164E0,1.2667911E0,2.5559702E0,2.289179E0,4.544776E0,2.016791E0,9.027986E0,1.5279851E0,2.516791E0,7.6455226E0,9.389926E0,2.272388E0,2.2947762E0,6.5671644E0,1.5E0],"tree_param":{"num_deleted":"0","num_feature":"4","num_nodes":"43","size_leaf_vector":"1"}},{"base_weights":[-2.5975346E-3,-3.098578E-1,2.632125E-1,6.642791E-2,-5.7255775E-1,-6.4327455E-1,3.8999534E-1,-4.8490202E-1,3.6802766E-1,2.0486726E-1,-7.164892E-1,1.2361519E-2,-3.2961032E-1,-2.5192037E-2,6.847673E-1,-2.958604E-1,-5.497863E-2,6.337715E-1,-1.9956584E-1,2.0656504E-1,-9.3630455E-2,-8.8535875E-1,1.7902235E-2,1.309268E-1,-1.2604387E-1,3.0971754E-1,-1.7916028E-1,5.17749E-1,3.8915342E-1,-1.3755926E-1,7.063521E-2,2.8857747E-1,-7.8040615E-2,-8.793239E-2,-2.9729906E-1,1.4602259E-1,-9.0576224E-2,-3.264578E-1,-2.6684697E-4,1.9539504E-1,-1.923157E-1],"categories":[],"categories_nodes":[],"categories_segments":[],"categories_sizes":[],"default_left":[0,0,0,0,0,0,0,0,0,0,0,0,0,0,0,0,0,0,0,0,0,0,0,0,0,0,0,0,0,0,0,0,0,0,0,0,0,0,0,0,0],"id":1,"left_children":[1,3,5,7,9,11,13,15,17,19,21,23,-1,25,27,-1,29,31,-1,-1,-1,33,35,-1,-1,-1,37,39,-1,-1,-1,-1,-1,-1,-1,-1,-1,-1,-1,-1,-1],"loss_changes":[5.654752E0,3.2121615E0,4.5178304E0,2.5225713E0,2.274281E0,1.4865487E0,4.079782E0,1.1131148E0,3.0797837E0,1.152037E0,2.033018E0,7.35594E-1,0E0,2.5862381E0,1.3175812E0,0E0,5.7382065E-1,2.6592894E0,0E0,0E0,0E0,5.381479E-1,7.4990046E-1,0E0,0E0,0E0,2.2231882E0,3.0402074E0,0E0,0E0,0E0,0E0,0E0,0E0,0E0,0E0,0E0,0E0,0E0,0E0,0E0],"parents":[2147483647,0,0,1,1,2,2,3,3,4,4,5,5,6,6,7,7,8,8,9,9,10,10,11,11,13,13,14,14,16,16,17,17,21,21,22,22,26,26,27,27],"right_children":[2,4,6,8,10,12,14,16,18,20,22,24,-1,26,28,-1,30,32,-1,-1,-1,34,36,-1,-1,-1,38,40,-1,-1,-1,-1,-1,-1,-1,-1,-1,-1,-1,-1,-1],"split_conditions":[1.527E-4,6.7920226E-1,5.348496E-1,1.5670872E1,1.5665776E1,1.5407653E1,1.5665771E1,5.332317E-1,1.5873707E1,8.2399017E-1,9.414078E-1,5.18703E1,-3.2961032E-1,1.3364143E1,4.30022E1,-2.958604E-1,1.111E-4,5.31527E1,-1.9956584E-1,2.0656504E-1,-9.3630455E-2,1.034E-4,9.4767004E-1,1.309268E-1,-1.2604387E-1,3.0971754E-1,1.3394778E1,2.195E-4,3.8915342E-1,-1.3755926E-1,7.063521E-2,2.8857747E-1,-7.8040615E-2,-8.793239E-2,-2.9729906E-1,1.4602259E-1,-9.0576224E-2,-3.264578E-1,-2.6684697E-4,1.9539504E-1,-1.923157E-1],"split_indices":[1,3,3,2,2,2,2,3,2,3,3,0,0,2,0,0,1,0,0,0,0,1,3,0,0,0,2,1,0,0,0,0,0,0,0,0,0,0,0,0,0],"split_type":[0,0,0,0,0,0,0,0,0,0,0,0,0,0,0,0,0,0,0,0,0,0,0,0,0,0,0,0,0,0,0,0,0,0,0,0,0,0,0,0,0],"sum_hessian":[6.723801E1,3.1110476E1,3.6127533E1,1.3097308E1,1.8013168E1,3.9330091E0,3.2194527E1,4.4163575E0,8.680951E0,2.7478244E0,1.5265344E1,2.0109231E0,1.922086E0,1.3746736E1,1.844779E1,1.4415646E0,2.974793E0,7.2125545E0,1.4683964E0,1.2481449E0,1.4996796E0,1.2244268E1,3.021075E0,1.010806E0,1.0001173E0,1.021943E0,1.27247925E1,1.5944728E1,2.503061E0,1.0027149E0,1.9720782E0,5.2201467E0,1.9924076E0,2.4247499E0,9.819518E0,1.0134754E0,2.0075996E0,1.2494558E0,1.1475337E1,1.4689501E1,1.2552273E0],"tree_param":{"num_deleted":"0","num_feature":"4","num_nodes":"41","size_leaf_vector":"1"}},{"base_weights":[-9.9612605E-3,-2.4402136E-1,1.9168736E-1,1.9183859E-1,-3.9288825E-1,-5.425385E-1,2.9302117E-1,-4.994223E-1,7.1851903E-1,-9.97579E-2,-6.236145E-1,5.5044973E-3,-3.047874E-1,5.0413185E-1,-4.3611124E-2,-3.0358565E-1,8.4290765E-2,-2.7335638E-2,2.9712507E-1,-4.1761398E-1,6.797835E-1,-9.452601E-1,-1.1556002E-1,3.1390527E-1,2.8472048E-1,4.7255886E-1,-3.5192603E-1,-6.8127695E-3,-2.2875701E-1,3.4393314E-1,-4.0015005E-2,-8.174016E-2,-3.8440248E-1,-2.0311548E-1,3.5193592E-1,1.8825798E-1,2.1627296E-2,3.1377587E-1,-3.072284E-3,-2.7679902E-2,-3.015913E-1],"categories":[],"categories_nodes":[],"categories_segments":[],"categories_sizes":[],"default_left":[0,0,0,0,0,0,0,0,0,0,0,0,0,0,0,0,0,0,0,0,0,0,0,0,0,0,0,0,0,0,0,0,0,0,0,0,0,0,0,0,0],"id":2,"left_children":[1,3,5,7,9,11,13,15,17,19,21,-1,-1,23,25,-1,-1,-1,-1,27,29,31,33,35,-1,37,39,-1,-1,-1,-1,-1,-1,-1,-1,-1,-1,-1,-1,-1,-1],"loss_changes":[3.1768816E0,2.0954175E0,2.8512895E0,3.489168E0,1.5295026E0,1.277067E0,2.3278778E0,2.0074327E0,1.2547815E0,3.1472468E0,2.0116525E0,0E0,0E0,1.3966212E0,2.302963E0,0E0,0E0,0E0,0E0,1.1851519E0,1.5674692E0,1.416369E0,5.259236E0,1.1316901E0,0E0,1.5186762E0,1.4305081E0,0E0,0E0,0E0,0E0,0E0,0E0,0E0,0E0,0E0,0E0,0E0,0E0,0E0,0E0],"parents":[2147483647,0,0,1,1,2,2,3,3,4,4,5,5,6,6,7,7,8,8,9,9,10,10,13,13,14,14,19,19,20,20,21,21,22,22,23,23,25,25,26,26],"right_children":[2,4,6,8,10,12,14,16,18,20,22,-1,-1,24,26,-1,-1,-1,-1,28,30,32,34,36,-1,38,40,-1,-1,-1,-1,-1,-1,-1,-1,-1,-1,-1,-1,-1,-1],"split_conditions":[1.527E-4,5.8620936E-1,5.348496E-1,5.332317E-1,1.5778079E1,5.161646E-1,2.226E-4,1.5776877E1,1.074E-4,4.30008E1,1.5871058E1,5.5044973E-3,-3.047874E-1,4.30016E1,1.4636992E1,-3.0358565E-1,8.4290765E-2,-2.7335638E-2,2.9712507E-1,7.9923546E-1,9.0197676E-1,7.519048E-1,8.8317853E-1,1.5670873E1,2.8472048E-1,8.59965E1,5.18712E1,-6.8127695E-3,-2.2875701E-1,3.4393314E-1,-4.0015005E-2,-8.174016E-2,-3.8440248E-1,-2.0311548E-1,3.5193592E-1,1.8825798E-1,2.1627296E-2,3.1377587E-1,-3.072284E-3,-2.7679902E-2,-3.015913E-1],"split_indices":[1,3,3,3,2,3,1,2,1,0,2,0,0,0,2,0,0,0,0,3,3,3,3,2,0,0,0,0,0,0,0,0,0,0,0,0,0,0,0,0,0],"split_type":[0,0,0,0,0,0,0,0,0,0,0,0,0,0,0,0,0,0,0,0,0,0,0,0,0,0,0,0,0,0,0,0,0,0,0,0,0,0,0,0,0],"sum_hessian":[6.5318756E1,3.0132666E1,3.5186092E1,7.598051E0,2.2534615E1,3.7392135E0,3.1446878E1,3.3080435E0,4.2900076E0,1.05559635E1,1.197865E1,2.1514783E0,1.5877352E0,1.9020847E1,1.2426031E1,1.8175958E0,1.4904478E0,1.2456573E0,3.0443501E0,7.8282833E0,2.7276807E0,6.808004E0,5.170646E0,1.4518966E1,4.501882E0,4.447488E0,7.978543E0,4.1465373E0,3.681746E0,1.4726856E0,1.2549951E0,2.871113E0,3.9368906E0,3.9320335E0,1.2386129E0,5.626541E0,8.892425E0,1.4998918E0,2.947596E0,6.526181E0,1.4523616E0],"tree_param":{"num_deleted":"0","num_feature":"4","num_nodes":"41","size_leaf_vector":"1"}},{"base_weights":[-8.4105125E-3,-4.801147E-1,5.349915E-2,6.943325E-2,-7.1987724E-1,2.3121552E-1,-1.5801495E-1,-3.085277E-2,-3.348474E-1,-2.068807E-1,3.6468577E-1,-6.458194E-1,1.21538356E-1,1.22595966E-1,-1.2661901E-1,7.7393666E-2,-4.11796E-1,3.771607E-2,5.5840254E-1,3.718748E-2,-7.6981807E-1,-1.1642953E-1,7.070077E-1,4.0085223E-2,-1.985958E-1,2.092935E-1,-1.0697531E-1,8.455935E-2,2.3268117E-1,-3.0614802E-1,-1.1077032E-1,2.1990255E-1,-7.799787E-2,2.6842675E-1,9.473572E-3],"categories":[],"categories_nodes":[],"categories_segments":[],"categories_sizes":[],"default_left":[0,0,0,0,0,0,0,0,0,0,0,0,0,0,0,0,0,0,0,0,0,0,0,0,0,0,0,0,0,0,0,0,0,0,0],"id":3,"left_children":[1,3,5,-1,7,9,11,13,-1,15,17,19,21,-1,-1,-1,23,25,27,-1,29,31,33,-1,-1,-1,-1,-1,-1,-1,-1,-1,-1,-1,-1],"loss_changes":[1.8921921E0,1.4488157E0,2.1941423E0,0E0,1.5669141E0,1.9230468E0,3.7333498E0,7.174975E-1,0E0,8.698716E-1,1.535887E0,1.0425291E0,2.5732985E0,0E0,0E0,0E0,9.002528E-1,2.907486E0,7.041793E-1,0E0,4.9526215E-1,1.8455153E0,6.449015E-1,0E0,0E0,0E0,0E0,0E0,0E0,0E0,0E0,0E0,0E0,0E0,0E0],"parents":[2147483647,0,0,1,1,2,2,4,4,5,5,6,6,7,7,9,9,10,10,11,11,12,12,16,16,17,17,18,18,20,20,21,21,22,22],"right_children":[2,4,6,-1,8,10,12,14,-1,16,18,20,22,-1,-1,-1,24,26,28,-1,30,32,34,-1,-1,-1,-1,-1,-1,-1,-1,-1,-1,-1,-1],"split_conditions":[5.332317E-1,1.283E-4,8.0264723E-1,6.943325E-2,1.5407653E1,1.206E-4,8.8317853E-1,5.18703E1,-3.348474E-1,1.5776261E1,1.5665788E1,1.5357209E1,1.5847525E1,1.22595966E-1,-1.2661901E-1,7.7393666E-2,6.0561585E-1,1.5340754E1,1.565E-4,3.718748E-2,8.39817E-1,9.0197676E-1,1.5877657E1,4.0085223E-2,-1.985958E-1,2.092935E-1,-1.0697531E-1,8.455935E-2,2.3268117E-1,-3.0614802E-1,-1.1077032E-1,2.1990255E-1,-7.799787E-2,2.6842675E-1,9.473572E-3],"split_indices":[3,1,3,0,2,1,3,0,0,2,2,2,2,0,0,0,3,2,1,0,3,3,2,0,0,0,0,0,0,0,0,0,0,0,0],"split_type":[0,0,0,0,0,0,0,0,0,0,0,0,0,0,0,0,0,0,0,0,0,0,0,0,0,0,0,0,0,0,0,0,0,0,0],"sum_hessian":[6.2914783E1,6.5156255E0,5.639916E1,1.6508839E0,4.8647413E0,3.0597593E1,2.5801563E1,2.1698382E0,2.6949034E0,7.0166087E0,2.3580984E1,8.922365E0,1.6879198E1,1.000848E0,1.1689901E0,2.067481E0,4.9491277E0,9.217572E0,1.4363413E1,1.2378957E0,7.6844697E0,1.2570834E1,4.308364E0,1.7028521E0,3.2462757E0,3.1597943E0,6.057778E0,7.3294096E0,7.0340033E0,3.7747867E0,3.9096832E0,1.2238313E0,1.1347003E1,3.1171675E0,1.1911964E0],"tree_param":{"num_deleted":"0","num_feature":"4","num_nodes":"35","size_leaf_vector":"1"}},{"base_weights":[-4.807694E-3,-1.6105488E-1,1.23176396E-1,-7.4833133E-3,-5.273439E-1,2.4493669E-1,-3.3205184E-1,-1.146094E-1,2.6726872E-1,-1.7980942E-1,-3.101275E-1,1.3140474E-1,3.7199718E-1,-6.878811E-1,1.52962E-1,1.1656558E-2,-2.3279677E-1,-5.95659E-1,1.1801356E-1,3.091714E-1,-4.7542685E-1,-9.1290677E-1,-6.222293E-2,-5.475235E-2,2.0123574E-1,-6.663143E-2,-2.2218232E-1,4.0702246E-2,2.3443632E-1,-2.289845E-1,8.6871006E-2,-3.3924013E-1,-7.661939E-2],"categories":[],"categories_nodes":[],"categories_segments":[],"categories_sizes":[],"default_left":[0,0,0,0,0,0,0,0,0,0,0,0,0,0,0,0,0,0,0,0,0,0,0,0,0,0,0,0,0,0,0,0,0],"id":4,"left_children":[1,3,5,7,9,11,13,15,-1,17,-1,19,-1,21,-1,23,-1,25,-1,27,29,31,-1,-1,-1,-1,-1,-1,-1,-1,-1,-1,-1],"loss_changes":[1.261428E0,1.5930698E0,2.0045831E0,2.1248882E0,1.2876413E0,2.994702E0,2.671494E0,1.6512567E0,0E0,1.706346E0,0E0,2.974063E0,0E0,4.4541526E-1,0E0,2.361764E0,0E0,5.0835013E-2,0E0,1.6044936E0,1.6153362E0,2.4191117E-1,0E0,0E0,0E0,0E0,0E0,0E0,0E0,0E0,0E0,0E0,0E0],"parents":[2147483647,0,0,1,1,2,2,3,3,4,4,5,5,6,6,7,7,9,9,11,11,13,13,15,15,17,17,19,19,20,20,21,21],"right_children":[2,4,6,8,10,12,14,16,-1,18,-1,20,-1,22,-1,24,-1,26,-1,28,30,32,-1,-1,-1,-1,-1,-1,-1,-1,-1,-1,-1],"split_conditions":[1.522E-4,1.373E-4,8.85E-4,1.347E-4,7.9923546E-1,6.577E-4,1.1324E-3,1.293E-4,2.6726872E-1,6.934049E-1,-3.101275E-1,2.226E-4,3.7199718E-1,7.5838166E-1,1.52962E-1,1.193E-4,-2.3279677E-1,5.8620936E-1,1.1801356E-1,4.30016E1,1.5778894E1,8.65E1,-6.222293E-2,-5.475235E-2,2.0123574E-1,-6.663143E-2,-2.2218232E-1,4.0702246E-2,2.3443632E-1,-2.289845E-1,8.6871006E-2,-3.3924013E-1,-7.661939E-2],"split_indices":[1,1,1,1,3,1,1,1,0,3,0,1,0,3,0,1,0,3,0,0,2,0,0,0,0,0,0,0,0,0,0,0,0],"split_type":[0,0,0,0,0,0,0,0,0,0,0,0,0,0,0,0,0,0,0,0,0,0,0,0,0,0,0,0,0,0,0,0,0],"sum_hessian":[6.1088333E1,2.7390596E1,3.369774E1,2.001815E1,7.372446E0,2.6951063E1,6.746676E0,1.8664904E1,1.3532468E0,5.1756454E0,2.196801E0,2.5207087E1,1.7439765E0,4.870982E0,1.8756938E0,1.6497662E1,2.1672416E0,2.9767792E0,2.1988661E0,1.9875288E1,5.3317976E0,2.7043798E0,2.1666026E0,1.3302236E1,3.1954265E0,1.5400753E0,1.4367038E0,1.5476964E1,4.3983245E0,3.8756874E0,1.4561105E0,1.4905857E0,1.2137941E0],"tree_param":{"num_deleted":"0","num_feature":"4","num_nodes":"33","size_leaf_vector":"1"}},{"base_weights":[-5.7848576E-3,-4.037844E-1,4.540135E-2,6.041661E-2,-6.247821E-1,4.729895E-1,-2.6929643E-2,-9.805745E-3,-2.9192302E-1,2.4706313E-1,-9.873189E-2,-8.226522E-1,3.5275448E-2,-1.4632206E-1,1.3816088E-1,-4.1129595E-1,5.5051807E-2,-1.9916397E-1,2.0312649E-1,6.144481E-3,-1.1620995E-1,1.476918E-1,-3.989124E-3],"categories":[],"categories_nodes":[],"categories_segments":[],"categories_sizes":[],"default_left":[0,0,0,0,0,0,0,0,0,0,0,0,0,0,0,0,0,0,0,0,0,0,0],"id":5,"left_children":[1,3,5,-1,7,9,11,-1,-1,-1,13,15,17,-1,-1,-1,-1,19,21,-1,-1,-1,-1],"loss_changes":[1.2543277E0,1.0639881E0,1.7031401E0,0E0,1.0781085E0,1.6770152E0,2.389799E0,0E0,0E0,0E0,1.0772866E0,2.182165E0,1.8189268E0,0E0,0E0,0E0,0E0,8.083211E-1,1.6859026E0,0E0,0E0,0E0,0E0],"parents":[2147483647,0,0,1,1,2,2,4,4,5,5,6,6,10,10,11,11,12,12,17,17,18,18],"right_children":[2,4,6,-1,8,10,12,-1,-1,-1,14,16,18,-1,-1,-1,-1,20,22,-1,-1,-1,-1],"split_conditions":[5.332317E-1,1.283E-4,5.877767E-1,6.041661E-2,1.5407653E1,4.30012E1,6.0823166E-1,-9.805745E-3,-2.9192302E-1,2.4706313E-1,5.609376E-1,4.30002E1,1.522E-4,-1.4632206E-1,1.3816088E-1,-4.1129595E-1,5.5051807E-2,1.5778079E1,7.856882E-1,6.144481E-3,-1.1620995E-1,1.476918E-1,-3.989124E-3],"split_indices":[3,1,3,0,2,0,3,0,0,0,3,0,1,0,0,0,0,2,3,0,0,0,0],"split_type":[0,0,0,0,0,0,0,0,0,0,0,0,0,0,0,0,0,0,0,0,0,0,0],"sum_hessian":[5.9671024E1,6.014739E0,5.3656284E1,1.6326557E0,4.3820834E0,6.961833E0,4.669445E1,2.0281315E0,2.353952E0,4.0426164E0,2.9192166E0,2.4992611E0,4.419519E1,1.7971057E0,1.122111E0,1.382975E0,1.1162863E0,1.8362095E1,2.5833094E1,8.884468E0,9.477627E0,1.0512215E1,1.5320879E1],"tree_param":{"num_deleted":"0","num_feature":"4","num_nodes":"23","size_leaf_vector":"1"}},{"base_weights":[-9.598927E-3,3.7824854E-2,-3.3793625E-1,-1.2571518E-2,2.9961792E-1,-6.1772525E-1,1.1107055E-1,4.053019E-2,-4.1307867E-1,-3.0628833E-1,-2.4935496E-1,-1.0321505E-2,2.0834418E-1,-6.29654E-1,5.2774895E-2,-2.3940152E-1,1.5726697E-1,8.68717E-3,-2.081021E-1,-4.491097E-2,-2.8366885E-1],"categories":[],"categories_nodes":[],"categories_segments":[],"categories_sizes":[],"default_left":[0,0,0,0,0,0,0,0,0,0,0,0,0,0,0,0,0,0,0,0,0],"id":6,"left_children":[1,3,5,7,-1,9,-1,11,13,-1,15,17,-1,19,-1,-1,-1,-1,-1,-1,-1],"loss_changes":[9.340807E-1,2.5597384E0,1.7282243E0,1.1006651E0,0E0,6.0688066E-1,0E0,1.533889E0,8.832389E-1,0E0,2.266255E0,1.1899112E0,0E0,5.628753E-1,0E0,0E0,0E0,0E0,0E0,0E0,0E0],"parents":[2147483647,0,0,1,1,2,2,3,3,5,5,7,7,8,8,10,10,11,11,13,13],"right_children":[2,4,6,8,-1,10,-1,12,14,-1,16,18,-1,20,-1,-1,-1,-1,-1,-1,-1],"split_conditions":[8.85E-4,6.577E-4,1.1324E-3,2.226E-4,2.9961792E-1,1.3400127E1,1.1107055E-1,1.871E-4,1.5778894E1,-3.0628833E-1,5.18669E1,1.794E-4,2.0834418E-1,1.5363167E1,5.2774895E-2,-2.3940152E-1,1.5726697E-1,8.68717E-3,-2.081021E-1,-4.491097E-2,-2.8366885E-1],"split_indices":[1,1,1,1,0,2,0,1,2,0,0,1,0,2,0,0,0,0,0,0,0],"split_type":[0,0,0,0,0,0,0,0,0,0,0,0,0,0,0,0,0,0,0,0,0],"sum_hessian":[5.8167583E1,5.159954E1,6.5680404E0,4.99659E1,1.633643E0,4.799529E0,1.7685114E0,4.491023E1,5.0556726E0,1.4455733E0,3.353956E0,4.2583145E1,2.3270824E0,3.6459966E0,1.409676E0,1.9437795E0,1.4101764E0,4.1174103E1,1.4090419E0,2.032286E0,1.6137104E0],"tree_param":{"num_deleted":"0","num_feature":"4","num_nodes":"21","size_leaf_vector":"1"}},{"base_weights":[-1.0924636E-2,-5.937597E-2,2.8514442E-1,-1.7700003E-2,-2.8164545E-1,-1.303763E-1,7.938558E-1,-5.4156546E-2,2.3421188E-1,-2.5908455E-1,2.4714188E-1,3.2264304E-1,7.8687064E-2,-1.6019321E-3,-6.7958605E-1,-6.9197364E-2,1.5071358E-1,1.2745583E-1,-1.7339231E-2,-2.907474E-1,-3.4654464E-3],"categories":[],"categories_nodes":[],"categories_segments":[],"categories_sizes":[],"default_left":[0,0,0,0,0,0,0,0,0,0,0,0,0,0,0,0,0,0,0,0,0],"id":7,"left_children":[1,3,5,7,-1,9,11,13,-1,-1,15,-1,-1,17,19,-1,-1,-1,-1,-1,-1],"loss_changes":[8.5345507E-1,1.8504714E0,1.8734734E0,1.4876207E0,0E0,1.7269802E0,3.025849E-1,1.5905257E0,0E0,0E0,6.5087235E-1,0E0,0E0,1.1190653E0,7.144457E-1,0E0,0E0,0E0,0E0,0E0,0E0],"parents":[2147483647,0,0,1,1,2,2,3,3,5,5,6,6,7,7,10,10,13,13,14,14],"right_children":[2,4,6,8,-1,10,12,14,-1,-1,16,-1,-1,18,20,-1,-1,-1,-1,-1,-1],"split_conditions":[9.401943E-1,9.342817E-1,1.568E-4,1.1324E-3,-2.8164545E-1,4.29995E1,1.5821372E1,9.708E-4,2.3421188E-1,-2.5908455E-1,1.132E-4,3.2264304E-1,7.8687064E-2,1.5357209E1,7.5838166E-1,-6.9197364E-2,1.5071358E-1,1.2745583E-1,-1.7339231E-2,-2.907474E-1,-3.4654464E-3],"split_indices":[3,3,1,1,0,0,2,1,0,0,1,0,0,2,3,0,0,0,0,0,0],"split_type":[0,0,0,0,0,0,0,0,0,0,0,0,0,0,0,0,0,0,0,0,0],"sum_hessian":[5.7314934E1,4.994152E1,7.3734155E0,4.8655888E1,1.2856323E0,4.4677906E0,2.905625E0,4.742266E1,1.2332275E0,1.0808622E0,3.3869286E0,1.2304915E0,1.6751335E0,4.4671494E1,2.7511678E0,1.2128282E0,2.1741004E0,4.437333E0,4.0234158E1,1.6047843E0,1.1463836E0],"tree_param":{"num_deleted":"0","num_feature":"4","num_nodes":"21","size_leaf_vector":"1"}},{"base_weights":[-8.179242E-3,4.277383E-2,-3.0638817E-1,-1.7086925E-2,5.9777164E-1,-6.3890725E-2,-2.3235627E-1,-5.285315E-1,3.6825854E-2,-9.406428E-2,3.1313208E-1,2.589949E-1,-5.174925E-1,-5.500679E-3,-2.155954E-1,4.5651782E-1,-3.2065988E-2,-1.509721E-1,6.3056165E-1,2.8600624E-2,-2.6231644E-1,2.0593251E-1,-1.0310428E-1,-2.1146609E-1,7.912728E-3,2.743084E-1,2.2132457E-3],"categories":[],"categories_nodes":[],"categories_segments":[],"categories_sizes":[],"default_left":[0,0,0,0,0,0,0,0,0,0,0,0,0,0,0,0,0,0,0,0,0,0,0,0,0,0,0],"id":8,"left_children":[1,3,5,7,9,11,-1,13,15,-1,-1,17,19,-1,-1,21,23,-1,25,-1,-1,-1,-1,-1,-1,-1,-1],"loss_changes":[8.897977E-1,1.6764971E0,9.202413E-1,1.2945786E0,2.3232436E0,1.1178366E0,0E0,4.208933E-1,1.2512443E0,0E0,0E0,1.6174341E0,7.672276E-1,0E0,0E0,1.3575329E0,1.49993E0,0E0,6.175549E-1,0E0,0E0,0E0,0E0,0E0,0E0,0E0,0E0],"parents":[2147483647,0,0,1,1,2,2,3,3,4,4,5,5,7,7,8,8,11,11,12,12,15,15,16,16,18,18],"right_children":[2,4,6,8,10,12,-1,14,16,-1,-1,18,20,-1,-1,22,24,-1,26,-1,-1,-1,-1,-1,-1,-1,-1],"split_conditions":[5.3153E1,5.1873E1,8.3552366E-1,5.288018E-1,1.098E-4,1.4269832E1,-2.3235627E-1,1.5407653E1,5.877767E-1,-9.406428E-2,3.1313208E-1,1.3400127E1,1.085E-4,-5.500679E-3,-2.155954E-1,4.30012E1,6.0823166E-1,-1.509721E-1,9.96913E1,2.8600624E-2,-2.6231644E-1,2.0593251E-1,-1.0310428E-1,-2.1146609E-1,7.912728E-3,2.743084E-1,2.2132457E-3],"split_indices":[0,0,3,3,1,2,0,2,3,0,0,2,1,0,0,0,3,0,0,0,0,0,0,0,0,0,0],"split_type":[0,0,0,0,0,0,0,0,0,0,0,0,0,0,0,0,0,0,0,0,0,0,0,0,0,0,0],"sum_hessian":[5.669739E1,4.915513E1,7.5422616E0,4.524439E1,3.9107409E0,5.717183E0,1.8250784E0,3.475027E0,4.176936E1,1.3826146E0,2.528126E0,3.5904398E0,2.1267436E0,1.2410504E0,2.2339768E0,5.096244E0,3.6673115E1,1.0605155E0,2.5299244E0,1.0524502E0,1.0742934E0,4.0691905E0,1.0270532E0,2.0468647E0,3.462625E1,1.4172597E0,1.1126646E0],"tree_param":{"num_deleted":"0","num_feature":"4","num_nodes":"27","size_leaf_vector":"1"}},{"base_weights":[-1.3619071E-2,2.844813E-2,-2.6653066E-1,-1.9051459E-2,4.6960342E-1,1.6019386E-1,-4.5432293E-1,-5.7849318E-2,2.0317976E-1,-7.858576E-2,2.4893503E-1,1.5854068E-1,-8.07765E-2,-2.7393225E-1,5.940061E-2,-2.2119122E-2,-2.3529829E-1,1.3155355E-1,-7.733385E-2,-2.2505976E-2,1.3723236E-1],"categories":[],"categories_nodes":[],"categories_segments":[],"categories_sizes":[],"default_left":[0,0,0,0,0,0,0,0,0,0,0,0,0,0,0,0,0,0,0,0,0],"id":9,"left_children":[1,3,5,7,9,11,13,15,-1,-1,-1,-1,-1,-1,17,19,-1,-1,-1,-1,-1],"loss_changes":[6.1028194E-1,1.0456462E0,7.278992E-1,1.2717764E0,1.4947817E0,6.5433425E-1,1.4536518E0,1.1283675E0,0E0,0E0,0E0,0E0,0E0,0E0,5.627595E-1,1.1276898E0,0E0,0E0,0E0,0E0,0E0],"parents":[2147483647,0,0,1,1,2,2,3,3,4,4,5,5,6,6,7,7,14,14,15,15],"right_children":[2,4,6,8,10,12,14,16,-1,-1,-1,-1,-1,-1,18,20,-1,-1,-1,-1,-1],"split_conditions":[5.3153E1,5.1873E1,1.074E-4,9.8472595E-1,1.098E-4,9.96913E1,9.498E-4,9.6563816E-1,2.0317976E-1,-7.858576E-2,2.4893503E-1,1.5854068E-1,-8.07765E-2,-2.7393225E-1,7.3267305E-1,9.401943E-1,-2.3529829E-1,1.3155355E-1,-7.733385E-2,-2.2505976E-2,1.3723236E-1],"split_indices":[0,0,1,3,1,0,1,3,0,0,0,0,0,0,3,3,0,0,0,0,0],"split_type":[0,0,0,0,0,0,0,0,0,0,0,0,0,0,0,0,0,0,0,0,0],"sum_hessian":[5.5648525E1,4.8473385E1,7.17514E0,4.4625347E1,3.8480365E0,2.237586E0,4.937554E0,4.313864E1,1.4867058E0,1.3594984E0,2.4885383E0,1.08046E0,1.157126E0,2.1975691E0,2.7399848E0,4.2098564E1,1.0400759E0,1.0738853E0,1.6660994E0,3.8675766E1,3.4227984E0],"tree_param":{"num_deleted":"0","num_feature":"4","num_nodes":"21","size_leaf_vector":"1"}},{"base_weights":[-7.7345967E-3,1.0630789E-1,-1.1113982E-1,5.5934125E-1,4.935931E-3,-2.542293E-1,-4.311369E-2,2.2855234E-1,1.9414666E-1,-3.5534567E-1,1.8886034E-1,-2.5510353E-1,1.0997781E-1,1.2962252E-1,-4.532425E-2,-5.321747E-1,8.696086E-2,-1.5859422E-1,3.947671E-1,-4.3345436E-1,2.598822E-1,2.4551705E-1,-8.938862E-3,-5.0108574E-2,-1.8996312E-1,-3.069563E-2,7.4519426E-2,-2.1296358E-1,4.9996037E-2,1.4568117E-1,-2.4812052E-2,-4.2403057E-2,-2.7409717E-1,-1.227701E-1,2.8161556E-1,-3.7683826E-2,2.3020402E-1],"categories":[],"categories_nodes":[],"categories_segments":[],"categories_sizes":[],"default_left":[0,0,0,0,0,0,0,0,0,0,0,0,0,0,0,0,0,0,0,0,0,0,0,0,0,0,0,0,0,0,0,0,0,0,0,0,0],"id":10,"left_children":[1,3,5,7,9,-1,11,-1,13,15,17,19,21,-1,-1,23,25,27,29,31,33,-1,35,-1,-1,-1,-1,-1,-1,-1,-1,-1,-1,-1,-1,-1,-1],"loss_changes":[6.7424583E-1,1.2474927E0,1.463551E0,2.1955311E-1,1.6080908E0,0E0,9.520223E-1,0E0,3.2109648E-1,6.881285E-1,1.2107679E0,1.2368495E0,1.4588382E0,0E0,0E0,1.1570728E-1,1.2330033E-1,1.3169625E0,4.8964667E-1,1.1986954E0,2.0982375E0,0E0,1.5222639E0,0E0,0E0,0E0,0E0,0E0,0E0,0E0,0E0,0E0,0E0,0E0,0E0,0E0,0E0],"parents":[2147483647,0,0,1,1,2,2,3,3,4,4,6,6,8,8,9,9,10,10,11,11,12,12,15,15,16,16,17,17,18,18,19,19,20,20,22,22],"right_children":[2,4,6,8,10,-1,12,-1,14,16,18,20,22,-1,-1,24,26,28,30,32,34,-1,36,-1,-1,-1,-1,-1,-1,-1,-1,-1,-1,-1,-1,-1,-1],"split_conditions":[7.519048E-1,4.29994E1,7.7053225E-1,1.463E-4,5.6801546E-1,-2.542293E-1,1.522E-4,2.2855234E-1,1.5782592E1,1.5778894E1,4.30005E1,1.5871058E1,7.856882E-1,1.2962252E-1,-4.532425E-2,5.161646E-1,5.268795E-1,6.0823166E-1,9.708E-4,1.5778079E1,8.8317853E-1,2.4551705E-1,9.8472595E-1,-5.0108574E-2,-1.8996312E-1,-3.069563E-2,7.4519426E-2,-2.1296358E-1,4.9996037E-2,1.4568117E-1,-2.4812052E-2,-4.2403057E-2,-2.7409717E-1,-1.227701E-1,2.8161556E-1,-3.7683826E-2,2.3020402E-1],"split_indices":[3,0,3,1,3,0,1,0,2,2,0,2,3,0,0,3,3,3,1,2,3,0,3,0,0,0,0,0,0,0,0,0,0,0,0,0,0],"split_type":[0,0,0,0,0,0,0,0,0,0,0,0,0,0,0,0,0,0,0,0,0,0,0,0,0,0,0,0,0,0,0,0,0,0,0,0,0],"sum_hessian":[5.517349E1,2.6223888E1,2.89496E1,3.9689329E0,2.2254955E1,1.4794219E0,2.7470179E1,1.8544943E0,2.1144385E0,7.206477E0,1.5048478E1,1.1239794E1,1.6230385E1,1.1028179E0,1.0116206E0,5.003111E0,2.2033663E0,5.685066E0,9.363412E0,8.466111E0,2.773682E0,1.4874251E0,1.474296E1,1.6593457E0,3.3437653E0,1.1827883E0,1.0205781E0,1.6707019E0,4.0143647E0,7.8524914E0,1.5109203E0,6.0687737E0,2.3973374E0,1.596851E0,1.1768312E0,1.3545318E1,1.1976421E0],"tree_param":{"num_deleted":"0","num_feature":"4","num_nodes":"37","size_leaf_vector":"1"}},{"base_weights":[-3.8375356E-3,-1.02855414E-1,8.086132E-2,1.7231356E-1,-1.9360094E-1,2.29606E-1,2.8999656E-2,-1.3282797E-1,2.4644642E-1,2.5296652E-1,-3.0225116E-1,-2.087789E-2,2.0607592E-1,7.06268E-2,-2.8658283E-1,2.3810442E-1,-9.8569445E-2,-7.41947E-2,-5.4797184E-1,-1.9121711E-1,3.6735676E-2,-1.8992876E-1,1.914874E-2,-7.873642E-2,1.6661103E-1,-2.0220311E-1,4.1296564E-2,1.3335717E-1,-1.4136825E-2],"categories":[],"categories_nodes":[],"categories_segments":[],"categories_sizes":[],"default_left":[0,0,0,0,0,0,0,0,0,0,0,0,0,0,0,0,0,0,0,0,0,0,0,0,0,0,0,0,0],"id":11,"left_children":[1,3,5,7,9,-1,11,13,-1,15,17,19,-1,-1,21,-1,-1,23,25,-1,27,-1,-1,-1,-1,-1,-1,-1,-1],"loss_changes":[4.6788362E-1,6.751783E-1,1.0461035E0,1.4766105E0,1.0371395E0,0E0,9.664392E-1,3.82099E-1,0E0,1.6502967E0,8.7729466E-1,1.015817E0,0E0,0E0,5.7115877E-1,0E0,0E0,1.2897778E0,7.606373E-1,0E0,9.2706233E-1,0E0,0E0,0E0,0E0,0E0,0E0,0E0,0E0],"parents":[2147483647,0,0,1,1,2,2,3,3,4,4,6,6,7,7,9,9,10,10,11,11,14,14,17,17,18,18,20,20],"right_children":[2,4,6,8,10,-1,12,14,-1,16,18,20,-1,-1,22,-1,-1,24,26,-1,28,-1,-1,-1,-1,-1,-1,-1,-1],"split_conditions":[1.527E-4,5.8620936E-1,1.541E-4,5.609376E-1,1.035E-4,2.29606E-1,9.8472595E-1,9.8E-5,2.4644642E-1,8.2399017E-1,1.5778079E1,1.558E-4,2.0607592E-1,7.06268E-2,1.144E-4,2.3810442E-1,-9.8569445E-2,4.30008E1,9.360483E-1,-1.9121711E-1,1.62E-4,-1.8992876E-1,1.914874E-2,-7.873642E-2,1.6661103E-1,-2.0220311E-1,4.1296564E-2,1.3335717E-1,-1.4136825E-2],"split_indices":[1,3,1,3,1,0,3,1,0,3,2,1,0,0,1,0,0,0,3,0,1,0,0,0,0,0,0,0,0],"split_type":[0,0,0,0,0,0,0,0,0,0,0,0,0,0,0,0,0,0,0,0,0,0,0,0,0,0,0,0,0],"sum_hessian":[5.3797062E1,2.4703209E1,2.9093851E1,5.903394E0,1.8799814E1,1.0801384E0,2.8013714E1,4.5568547E0,1.3465395E0,3.4189973E0,1.5380817E1,2.693966E1,1.0740545E0,1.1857554E0,3.3710995E0,1.5826331E0,1.8363642E0,8.652381E0,6.7284365E0,1.4423313E0,2.5497328E1,1.2893639E0,2.0817356E0,7.1095233E0,1.5428578E0,5.6979313E0,1.0305051E0,3.6154022E0,2.1881926E1],"tree_param":{"num_deleted":"0","num_feature":"4","num_nodes":"29","size_leaf_vector":"1"}},{"base_weights":[7.863292E-3,8.613102E-2,-9.747954E-2,3.422744E-2,2.0829667E-1,-2.625928E-1,-1.8035747E-2,1.0032248E-1,-3.4443012E-1,-1.4741726E-1,2.5235897E-1,5.101346E-1,9.069675E-3,-2.8829044E-1,1.7839648E-1,-1.51400855E-2,-2.0655662E-1,4.278211E-1,-1.146717E-1,2.3389156E-1,6.4174965E-2,-6.050588E-2,6.736426E-2,-5.592295E-2,1.255579E-1,1.4870726E-1,-6.389263E-2,-8.353867E-3,2.564041E-1],"categories":[],"categories_nodes":[],"categories_segments":[],"categories_sizes":[],"default_left":[0,0,0,0,0,0,0,0,0,0,0,0,0,0,0,0,0,0,0,0,0,0,0,0,0,0,0,0,0],"id":12,"left_children":[1,3,5,7,-1,-1,9,11,13,15,17,19,21,-1,23,25,-1,27,-1,-1,-1,-1,-1,-1,-1,-1,-1,-1,-1],"loss_changes":[4.5080367E-1,9.648006E-1,1.4265984E0,7.8301233E-1,0E0,0E0,8.138439E-1,9.7649705E-1,1.6767273E0,1.1094842E0,1.004585E0,2.1321332E-1,1.0659878E0,0E0,3.732674E-1,1.4795272E0,0E0,1.26653E0,0E0,0E0,0E0,0E0,0E0,0E0,0E0,0E0,0E0,0E0,0E0],"parents":[2147483647,0,0,1,1,2,2,3,3,6,6,7,7,8,8,9,9,10,10,11,11,12,12,14,14,15,15,17,17],"right_children":[2,4,6,8,-1,-1,10,12,14,16,18,20,22,-1,24,26,-1,28,-1,-1,-1,-1,-1,-1,-1,-1,-1,-1,-1],"split_conditions":[8.0264723E-1,7.881811E-1,8.219837E-1,7.519048E-1,2.0829667E-1,-2.625928E-1,1.5847531E1,4.29994E1,4.29995E1,1.5816804E1,1.5881935E1,1.373E-4,6.0823166E-1,-2.8829044E-1,7.715557E-1,4.29996E1,-2.0655662E-1,8.8492393E-1,-1.146717E-1,2.3389156E-1,6.4174965E-2,-6.050588E-2,6.736426E-2,-5.592295E-2,1.255579E-1,1.4870726E-1,-6.389263E-2,-8.353867E-3,2.564041E-1],"split_indices":[3,3,3,3,0,0,2,0,0,2,2,1,3,0,3,0,0,3,0,0,0,0,0,0,0,0,0,0,0],"split_type":[0,0,0,0,0,0,0,0,0,0,0,0,0,0,0,0,0,0,0,0,0,0,0,0,0,0,0,0,0],"sum_hessian":[5.265805E1,3.031612E1,2.234193E1,2.890557E1,1.41055E0,1.142065E0,2.1199865E1,2.523571E1,3.66986E0,1.4646466E1,6.553399E0,3.7598875E0,2.1475822E1,1.2994602E0,2.3703997E0,1.2595405E1,2.0510623E0,5.3891687E0,1.1642303E0,1.1141973E0,2.6456902E0,1.0889225E1,1.0586597E1,1.0297346E0,1.3406651E0,3.0959013E0,9.499503E0,3.0587513E0,2.3304174E0],"tree_param":{"num_deleted":"0","num_feature":"4","num_nodes":"29","size_leaf_vector":"1"}},{"base_weights":[6.756849E-3,3.64752E-2,-2.1393935E-1,-8.482524E-3,2.3052298E-1,1.1874539E-1,-1.9779211E-1,4.4581983E-2,-4.3929967E-1,2.199577E-1,-2.8552714E-1,-6.0531637E-4,1.8464278E-1,-6.5799373E-1,3.2244306E-2,5.087027E-2,-1.6709471E-1,-2.6165146E-2,7.808313E-2,-2.5725862E-1,-5.728069E-2],"categories":[],"categories_nodes":[],"categories_segments":[],"categories_sizes":[],"default_left":[0,0,0,0,0,0,0,0,0,0,0,0,0,0,0,0,0,0,0,0,0],"id":13,"left_children":[1,3,5,7,-1,9,-1,11,13,-1,15,17,-1,19,-1,-1,-1,-1,-1,-1,-1],"loss_changes":[3.548452E-1,1.5691565E0,1.030291E0,1.0649956E0,0E0,1.3334357E0,0E0,1.0740981E0,6.8139887E-1,0E0,5.205466E-1,9.16761E-1,0E0,1.8931723E-1,0E0,0E0,0E0,0E0,0E0,0E0,0E0],"parents":[2147483647,0,0,1,1,2,2,3,3,5,5,7,7,8,8,10,10,11,11,13,13],"right_children":[2,4,6,8,-1,10,-1,12,14,-1,16,18,-1,20,-1,-1,-1,-1,-1,-1,-1],"split_conditions":[8.85E-4,5.957E-4,1.5340754E1,2.226E-4,2.3052298E-1,8.59965E1,-1.9779211E-1,1.871E-4,1.5778894E1,2.199577E-1,7.3267305E-1,4.30016E1,1.8464278E-1,7.1946037E-1,3.2244306E-2,5.087027E-2,-1.6709471E-1,-2.6165146E-2,7.808313E-2,-2.5725862E-1,-5.728069E-2],"split_indices":[1,1,2,1,0,0,0,1,2,0,3,0,0,3,0,0,0,0,0,0,0],"split_type":[0,0,0,0,0,0,0,0,0,0,0,0,0,0,0,0,0,0,0,0,0],"sum_hessian":[5.1912968E1,4.6487778E1,5.425191E0,4.4728806E1,1.7589725E0,3.5252469E0,1.8999441E0,4.0621857E1,4.106948E0,1.0760968E0,2.44915E0,3.856806E1,2.053793E0,2.7883177E0,1.3186302E0,1.0552918E0,1.3938583E0,2.945486E1,9.113202E0,1.3679044E0,1.4204133E0],"tree_param":{"num_deleted":"0","num_feature":"4","num_nodes":"21","size_leaf_vector":"1"}},{"base_weights":[6.6675995E-3,4.617374E-2,-1.8515623E-1,2.5489407E-3,2.0626052E-1,-1.0587547E-2,-2.3389876E-1,-4.0394202E-1,4.2104505E-2,-1.3375102E-1,1.0551036E-1,1.717424E-2,-1.8079662E-1,4.8883796E-1,-6.2387143E-3,9.067062E-2,-1.5366812E-1,1.4969177E-2,2.1127981E-1,-7.497613E-2,1.9913178E-2,-7.3268116E-2,1.2438785E-1],"categories":[],"categories_nodes":[],"categories_segments":[],"categories_sizes":[],"default_left":[0,0,0,0,0,0,0,0,0,0,0,0,0,0,0,0,0,0,0,0,0,0,0],"id":14,"left_children":[1,3,5,7,-1,9,-1,11,13,15,-1,-1,-1,17,19,21,-1,-1,-1,-1,-1,-1,-1],"loss_changes":[4.033235E-1,1.2292583E0,9.3574786E-1,6.955234E-1,0E0,4.0601915E-1,0E0,3.8610488E-1,8.531393E-1,6.1794865E-1,0E0,0E0,0E0,3.2950664E-1,6.625706E-1,6.5169555E-1,0E0,0E0,0E0,0E0,0E0,0E0,0E0],"parents":[2147483647,0,0,1,1,2,2,3,3,5,5,7,7,8,8,9,9,13,13,14,14,15,15],"right_children":[2,4,6,8,-1,10,-1,12,14,16,-1,-1,-1,18,20,22,-1,-1,-1,-1,-1,-1,-1],"split_conditions":[5.31527E1,5.1873E1,9.110416E-1,5.288018E-1,2.0626052E-1,8.224236E-1,-2.3389876E-1,1.5407653E1,5.6749773E-1,7.3267305E-1,1.0551036E-1,1.717424E-2,-1.8079662E-1,5.4571944E-1,1.347E-4,5.609376E-1,-1.5366812E-1,1.4969177E-2,2.1127981E-1,-7.497613E-2,1.9913178E-2,-7.3268116E-2,1.2438785E-1],"split_indices":[0,0,3,3,0,3,0,2,3,3,0,0,0,3,1,3,0,0,0,0,0,0,0],"split_type":[0,0,0,0,0,0,0,0,0,0,0,0,0,0,0,0,0,0,0,0,0,0,0],"sum_hessian":[5.109326E1,4.299726E1,8.096001E0,4.1198925E1,1.7983382E0,7.0451093E0,1.0508915E0,2.8366106E0,3.8362312E1,5.7284765E0,1.3166329E0,1.0685487E0,1.7680618E0,2.8562505E0,3.550606E1,4.073488E0,1.6549885E0,1.3457882E0,1.5104623E0,7.590959E0,2.7915104E1,2.1239293E0,1.9495589E0],"tree_param":{"num_deleted":"0","num_feature":"4","num_nodes":"23","size_leaf_vector":"1"}},{"base_weights":[4.244555E-3,2.1242236E-1,-2.6930517E-2,4.6137092E-1,-1.1752048E-1,-1.778883E-1,1.788052E-2,2.314333E-1,1.7049086E-1,5.116252E-1,-3.4977075E-2,1.7753099E-1,-5.1903028E-2,-3.22916E-2,2.5832966E-1,-8.966425E-2,1.8741615E-1,-7.334873E-2,8.712357E-3,2.5626752E-1,-2.8333848E-2],"categories":[],"categories_nodes":[],"categories_segments":[],"categories_sizes":[],"default_left":[0,0,0,0,0,0,0,0,0,0,0,0,0,0,0,0,0,0,0,0,0],"id":15,"left_children":[1,3,5,7,-1,-1,9,-1,11,13,15,-1,-1,-1,-1,17,19,-1,-1,-1,-1],"loss_changes":[3.3791056E-1,1.2003624E0,1.1622982E0,3.4291112E-1,0E0,0E0,1.1413095E0,0E0,6.8089974E-1,1.007394E0,5.010871E-1,0E0,0E0,0E0,0E0,6.0693693E-1,1.6185989E0,0E0,0E0,0E0,0E0],"parents":[2147483647,0,0,1,1,2,2,3,3,6,6,8,8,9,9,10,10,15,15,16,16],"right_children":[2,4,6,8,-1,-1,10,-1,12,14,16,-1,-1,-1,-1,18,20,-1,-1,-1,-1],"split_conditions":[4.29994E1,1.5821372E1,4.29995E1,1.5506735E1,-1.1752048E-1,-1.778883E-1,4.29996E1,2.314333E-1,1.373E-4,1.457E-4,1.5871058E1,1.7753099E-1,-5.1903028E-2,-3.22916E-2,2.5832966E-1,4.30016E1,1.5873707E1,-7.334873E-2,8.712357E-3,2.5626752E-1,-2.8333848E-2],"split_indices":[0,2,0,2,0,0,0,0,1,1,2,0,0,0,0,0,2,0,0,0,0],"split_type":[0,0,0,0,0,0,0,0,0,0,0,0,0,0,0,0,0,0,0,0,0],"sum_hessian":[5.0185226E1,5.7792525E0,4.440597E1,4.2601557E0,1.5190966E0,2.3602319E0,4.2045742E1,1.2623775E0,2.9977784E0,3.2266045E0,3.8819138E1,1.0218242E0,1.9759542E0,1.4136423E0,1.8129622E0,3.1636456E1,7.1826806E0,1.3269247E1,1.8367208E1,1.530735E0,5.6519456E0],"tree_param":{"num_deleted":"0","num_feature":"4","num_nodes":"21","size_leaf_vector":"1"}},{"base_weights":[1.2639139E-2,4.979025E-2,-1.6949953E-1,1.4180158E-2,1.7451373E-1,6.787839E-2,-3.808489E-1,-3.6122346E-1,4.8825618E-2,-2.0242439E-1,9.973524E-2,-5.7167877E-3,-1.9781585E-1,6.5625086E-3,-1.5811437E-1,-1.5313554E-1,1.3065019E-1,1.261179E-2,-1.02358304E-1,-3.5611156E-2,3.2208532E-2,-8.265236E-2,1.3178377E-1,2.152104E-1,3.4590417E-3],"categories":[],"categories_nodes":[],"categories_segments":[],"categories_sizes":[],"default_left":[0,0,0,0,0,0,0,0,0,0,0,0,0,0,0,0,0,0,0,0,0,0,0,0,0],"id":16,"left_children":[1,3,5,7,-1,9,11,13,15,17,-1,19,-1,-1,-1,21,23,-1,-1,-1,-1,-1,-1,-1,-1],"loss_changes":[3.5162783E-1,8.043201E-1,4.6831802E-1,5.538953E-1,0E0,4.2505872E-1,4.9952495E-1,2.4040231E-1,6.583621E-1,1.1937544E-1,0E0,5.1855795E-2,0E0,0E0,0E0,9.618453E-1,1.9507722E0,0E0,0E0,0E0,0E0,0E0,0E0,0E0,0E0],"parents":[2147483647,0,0,1,1,2,2,3,3,5,5,6,6,7,7,8,8,9,9,11,11,15,15,16,16],"right_children":[2,4,6,8,-1,10,12,14,16,18,-1,20,-1,-1,-1,22,24,-1,-1,-1,-1,-1,-1,-1,-1],"split_conditions":[5.31527E1,5.1873E1,7.3267305E-1,5.288018E-1,1.7451373E-1,5.609376E-1,1.4636992E1,1.5407653E1,1.5665788E1,5.2445495E-1,9.973524E-2,1.017E-3,-1.9781585E-1,6.5625086E-3,-1.5811437E-1,9.401943E-1,1.5670873E1,1.261179E-2,-1.02358304E-1,-3.5611156E-2,3.2208532E-2,-8.265236E-2,1.3178377E-1,2.152104E-1,3.4590417E-3],"split_indices":[0,0,3,3,0,3,2,2,2,3,0,1,0,0,0,3,2,0,0,0,0,0,0,0,0],"split_type":[0,0,0,0,0,0,0,0,0,0,0,0,0,0,0,0,0,0,0,0,0,0,0,0,0],"sum_hessian":[4.971759E1,4.189819E1,7.8194036E0,4.0231506E1,1.6666824E0,4.0026474E0,3.8167565E0,2.6027641E0,3.7628742E1,2.0960739E0,1.9065732E0,2.06123E0,1.7555265E0,1.0485102E0,1.554254E0,1.0598295E1,2.7030447E1,1.0114005E0,1.0846735E0,1.0061486E0,1.0550812E0,9.227214E0,1.3710814E0,3.714197E0,2.331625E1],"tree_param":{"num_deleted":"0","num_feature":"4","num_nodes":"25","size_leaf_vector":"1"}},{"base_weights":[1.103966E-2,4.2287037E-2,-2.2936925E-1,4.0763444E-3,2.5244683E-1,-1.6864608E-1,9.7371176E-2,3.5701446E-2,-1.3581431E-1,-1.3196535E-2,2.8790691E-1,2.1236734E-2,-1.2270925E-1,2.0011275E-1,-3.8530193E-2],"categories":[],"categories_nodes":[],"categories_segments":[],"categories_sizes":[],"default_left":[0,0,0,0,0,0,0,0,0,0,0,0,0,0,0],"id":17,"left_children":[1,3,5,7,-1,-1,-1,9,-1,11,13,-1,-1,-1,-1],"loss_changes":[3.8479367E-1,1.3717796E0,1.2699094E0,6.515386E-1,0E0,0E0,0E0,5.225184E-1,0E0,1.2319771E0,1.1708043E0,0E0,0E0,0E0,0E0],"parents":[2147483647,0,0,1,1,2,2,3,3,7,7,9,9,10,10],"right_children":[2,4,6,8,-1,-1,-1,10,-1,12,14,-1,-1,-1,-1],"split_conditions":[9.476588E-1,9.414078E-1,1.568E-4,9.302202E-1,2.5244683E-1,-1.6864608E-1,9.7371176E-2,8.8317853E-1,-1.3581431E-1,8.2399017E-1,1.612E-4,2.1236734E-2,-1.2270925E-1,2.0011275E-1,-3.8530193E-2],"split_indices":[3,3,1,3,0,0,0,3,0,3,1,0,0,0,0],"split_type":[0,0,0,0,0,0,0,0,0,0,0,0,0,0,0],"sum_hessian":[4.8931705E1,4.4032627E1,4.899079E0,4.298268E1,1.0499458E0,3.0512092E0,1.8478694E0,4.106169E1,1.9209913E0,3.5187214E1,5.8744755E0,2.9705626E1,5.4815893E0,2.7594569E0,3.1150188E0],"tree_param":{"num_deleted":"0","num_feature":"4","num_nodes":"15","size_leaf_vector":"1"}},{"base_weights":[9.9993525E-3,2.1296033E-1,-2.0152021E-2,4.2715812E-1,-9.4470866E-2,-4.5974073E-1,1.4579228E-2,2.0998432E-1,1.6650918E-1,-4.115241E-2,-1.6825871E-1,4.298008E-1,-2.7411653E-2,-3.680934E-2,1.2246324E-1,-2.0204874E-2,2.1795113E-1,-1.5477356E-1,1.0583474E-3,-4.6269234E-2,3.391922E-2],"categories":[],"categories_nodes":[],"categories_segments":[],"categories_sizes":[],"default_left":[0,0,0,0,0,0,0,0,0,0,0,0,0,0,0,0,0,0,0,0,0],"id":18,"left_children":[1,3,5,7,-1,9,11,-1,13,-1,-1,15,17,-1,-1,-1,-1,-1,19,-1,-1],"loss_changes":[3.075635E-1,8.6904186E-1,6.7940956E-1,2.42203E-1,0E0,2.9304087E-2,7.4066305E-1,0E0,3.2216793E-1,0E0,0E0,6.2410206E-1,5.416225E-1,0E0,0E0,0E0,0E0,0E0,6.742165E-1,0E0,0E0],"parents":[2147483647,0,0,1,1,2,2,3,3,5,5,6,6,8,8,11,11,12,12,18,18],"right_children":[2,4,6,8,-1,10,12,-1,14,-1,-1,16,18,-1,-1,-1,-1,-1,20,-1,-1],"split_conditions":[4.29994E1,1.5821372E1,4.29995E1,1.5506735E1,-9.4470866E-2,1.545E-4,4.29996E1,2.0998432E-1,1.5819698E1,-4.115241E-2,-1.6825871E-1,1.457E-4,1.3400127E1,-3.680934E-2,1.2246324E-1,-2.0204874E-2,2.1795113E-1,-1.5477356E-1,4.30011E1,-4.6269234E-2,3.391922E-2],"split_indices":[0,2,0,2,0,1,0,0,2,0,0,1,2,0,0,0,0,0,0,0,0],"split_type":[0,0,0,0,0,0,0,0,0,0,0,0,0,0,0,0,0,0,0,0,0],"sum_hessian":[4.855786E1,5.4963937E0,4.3061466E1,4.0455556E0,1.4508379E0,2.257061E0,4.0804405E1,1.153218E0,2.8923376E0,1.1011273E0,1.1559336E0,2.899315E0,3.790509E1,1.5409176E0,1.3514199E0,1.3725314E0,1.5267837E0,1.1445845E0,3.6760506E1,1.5245942E1,2.1514565E1],"tree_param":{"num_deleted":"0","num_feature":"4","num_nodes":"21","size_leaf_vector":"1"}},{"base_weights":[7.981107E-3,3.446586E-2,-1.9803269E-1,-4.544503E-3,2.0069866E-1,1.2247449E-1,-1.7590812E-1,4.5455065E-2,-4.0716013E-1,-8.469803E-2,1.2910011E-1,-2.4459798E-2,2.99354E-1,-5.866513E-1,1.5097804E-2,1.0576494E-2,-1.279831E-1,2.0663665E-1,2.4743257E-2,-2.3005551E-1,-4.8048113E-2],"categories":[],"categories_nodes":[],"categories_segments":[],"categories_sizes":[],"default_left":[0,0,0,0,0,0,0,0,0,0,0,0,0,0,0,0,0,0,0,0,0],"id":19,"left_children":[1,3,5,7,-1,9,-1,11,13,-1,-1,15,17,19,-1,-1,-1,-1,-1,-1,-1],"loss_changes":[2.7425328E-1,1.0991586E0,7.8517103E-1,8.7829274E-1,0E0,6.158912E-1,0E0,6.977022E-1,4.2519873E-1,0E0,0E0,7.695486E-1,6.5878755E-1,1.4922535E-1,0E0,0E0,0E0,0E0,0E0,0E0,0E0],"parents":[2147483647,0,0,1,1,2,2,3,3,5,5,7,7,8,8,11,11,12,12,13,13],"right_children":[2,4,6,8,-1,10,-1,12,14,-1,-1,16,18,20,-1,-1,-1,-1,-1,-1,-1],"split_conditions":[8.85E-4,5.957E-4,1.5340754E1,2.226E-4,2.0069866E-1,1.3400127E1,-1.7590812E-1,1.672E-4,1.5778894E1,-8.469803E-2,1.2910011E-1,9.5086384E-1,1.706E-4,7.1946037E-1,1.5097804E-2,1.0576494E-2,-1.279831E-1,2.0663665E-1,2.4743257E-2,-2.3005551E-1,-4.8048113E-2],"split_indices":[1,1,2,1,0,2,0,1,2,0,0,3,1,3,0,0,0,0,0,0,0],"split_type":[0,0,0,0,0,0,0,0,0,0,0,0,0,0,0,0,0,0,0,0,0],"sum_hessian":[4.8013363E1,4.328183E1,4.731531E0,4.171035E1,1.5714804E0,2.9671762E0,1.7643552E0,3.789179E1,3.8185616E0,1.3176049E0,1.6495713E0,3.0419098E1,7.4726906E0,2.5397668E0,1.2787949E0,2.7280577E1,3.1385217E0,1.8946344E0,5.5780563E0,1.22439E0,1.3153768E0],"tree_param":{"num_deleted":"0","num_feature":"4","num_nodes":"21","size_leaf_vector":"1"}},{"base_weights":[4.0432075E-3,3.6040477E-2,-1.9757223E-1,1.5231256E-1,-6.561974E-2,5.2437942E-2,-3.8886356E-1,4.8631858E-2,6.468288E-1,-3.4763923E-1,8.3269686E-2,2.246555E-2,-2.4219099E-1,1.737498E-1,-2.4534424E-1,1.3606868E-2,2.7777433E-1,-5.080581E-1,8.852716E-2,1.8377008E-1,-7.5269357E-4,-1.2398183E-1,1.178345E-1,9.7152136E-2,-1.7877375E-1,-1.4750856E-1,1.1759388E-1,-1.0022161E-2,-3.213502E-1,4.2010922E-2,-1.3558562E-1],"categories":[],"categories_nodes":[],"categories_segments":[],"categories_sizes":[],"default_left":[0,0,0,0,0,0,0,0,0,0,0,0,0,0,0,0,0,0,0,0,0,0,0,0,0,0,0,0,0,0,0],"id":20,"left_children":[1,3,5,7,9,-1,11,13,15,17,19,21,-1,23,25,-1,-1,27,-1,-1,29,-1,-1,-1,-1,-1,-1,-1,-1,-1,-1],"loss_changes":[3.1904534E-1,5.132412E-1,5.506904E-1,1.0022497E0,1.0120807E0,0E0,8.4207255E-1,6.9543743E-1,5.309353E-1,1.0039732E0,7.178267E-1,7.08852E-1,0E0,1.6987724E0,1.0897375E0,0E0,0E0,1.834154E0,0E0,0E0,1.0110289E0,0E0,0E0,0E0,0E0,0E0,0E0,0E0,0E0,0E0,0E0],"parents":[2147483647,0,0,1,1,2,2,3,3,4,4,6,6,7,7,8,8,9,9,10,10,11,11,13,13,14,14,17,17,20,20],"right_children":[2,4,6,8,10,-1,12,14,16,18,20,22,-1,24,26,-1,-1,28,-1,-1,30,-1,-1,-1,-1,-1,-1,-1,-1,-1,-1],"split_conditions":[5.3153E1,7.519048E-1,1.074E-4,7.1946037E-1,8.4234893E-1,5.2437942E-2,1.4636992E1,1.706E-4,1.5781854E1,1.5864703E1,8.5146654E-1,1.3400127E1,-2.4219099E-1,1.5873707E1,1.5865332E1,1.3606868E-2,2.7777433E-1,8.0264723E-1,8.852716E-2,1.8377008E-1,1.794E-4,-1.2398183E-1,1.178345E-1,9.7152136E-2,-1.7877375E-1,-1.4750856E-1,1.1759388E-1,-1.0022161E-2,-3.213502E-1,4.2010922E-2,-1.3558562E-1],"split_indices":[0,3,1,3,3,0,2,1,2,2,3,2,0,2,2,0,0,3,0,0,1,0,0,0,0,0,0,0,0,0,0],"split_type":[0,0,0,0,0,0,0,0,0,0,0,0,0,0,0,0,0,0,0,0,0,0,0,0,0,0,0,0,0,0,0],"sum_hessian":[4.7351852E1,4.1574963E1,5.7768908E0,1.9161304E1,2.2413656E1,1.9898058E0,3.787085E0,1.6748203E1,2.413101E0,7.283225E0,1.5130431E1,2.386979E0,1.400106E0,1.2035002E1,4.713201E0,1.1332626E0,1.2798384E0,5.996172E0,1.2870532E0,1.2110332E0,1.3919398E1,1.0433291E0,1.3436499E0,1.0555779E1,1.4792228E0,3.5640535E0,1.1491479E0,3.8284528E0,2.167719E0,1.1134654E1,2.7847443E0],"tree_param":{"num_deleted":"0","num_feature":"4","num_nodes":"31","size_leaf_vector":"1"}},{"base_weights":[-1.56626E-3,-6.9768354E-2,7.487372E-2,-2.1250809E-2,-3.9588037E-1,4.3186992E-1,5.0269812E-3,3.1827095E-1,-9.907107E-2,-1.6985747E-1,-1.830536E-2,2.1876521E-1,-5.2389167E-3,-3.7423792E-1,8.342437E-2,-3.816258E-2,1.7707182E-1,4.4456877E-2,-5.9353924E-1,9.5831364E-2,-2.5942412E-1,-1.6662778E-2,1.9716327E-1,1.0066293E-1,-2.5169546E-2,-2.1014227E-1,-3.4546725E-2,1.3649578E-1,-5.9450995E-2],"categories":[],"categories_nodes":[],"categories_segments":[],"categories_sizes":[],"default_left":[0,0,0,0,0,0,0,0,0,0,0,0,0,0,0,0,0,0,0,0,0,0,0,0,0,0,0,0,0],"id":21,"left_children":[1,3,5,7,9,11,13,15,17,-1,-1,-1,-1,19,21,-1,-1,23,25,-1,-1,27,-1,-1,-1,-1,-1,-1,-1],"loss_changes":[2.5239232E-1,3.9620742E-1,5.67283E-1,6.476275E-1,1.5109825E-1,5.104583E-1,6.292261E-1,6.3063145E-1,1.4267989E0,0E0,0E0,0E0,0E0,1.510508E0,1.0150769E0,0E0,0E0,6.3430625E-1,1.4998972E-1,0E0,0E0,1.4481674E0,0E0,0E0,0E0,0E0,0E0,0E0,0E0],"parents":[2147483647,0,0,1,1,2,2,3,3,4,4,5,5,6,6,7,7,8,8,13,13,14,14,17,17,18,18,21,21],"right_children":[2,4,6,8,10,12,14,16,18,-1,-1,-1,-1,20,22,-1,-1,24,26,-1,-1,28,-1,-1,-1,-1,-1,-1,-1],"split_conditions":[1.565E-4,9.5086384E-1,1.62E-4,1.55061E1,1.57244215E1,1.5670881E1,1.672E-4,6.0823166E-1,1.463E-4,-1.6985747E-1,-1.830536E-2,2.1876521E-1,-5.2389167E-3,7.314973E-1,9.401943E-1,-3.816258E-2,1.7707182E-1,4.30002E1,1.5820042E1,9.5831364E-2,-2.5942412E-1,4.30013E1,1.9716327E-1,1.0066293E-1,-2.5169546E-2,-2.1014227E-1,-3.4546725E-2,1.3649578E-1,-5.9450995E-2],"split_indices":[1,3,1,2,2,2,1,3,1,0,0,0,0,3,3,0,0,0,2,0,0,0,0,0,0,0,0,0,0],"split_type":[0,0,0,0,0,0,0,0,0,0,0,0,0,0,0,0,0,0,0,0,0,0,0,0,0,0,0,0,0],"sum_hessian":[4.6410534E1,2.4573017E1,2.1837519E1,2.231783E1,2.2551868E0,2.7252562E0,1.9112263E1,3.5853775E0,1.8732452E1,1.0369669E0,1.2182198E0,1.2651504E0,1.4601057E0,2.627507E0,1.6484756E1,1.5609069E0,2.0244706E0,1.5223623E1,3.5088289E0,1.2328205E0,1.3946866E0,1.4863104E1,1.6216518E0,4.1646943E0,1.10589285E1,2.4883463E0,1.0204827E0,3.711643E0,1.1151462E1],"tree_param":{"num_deleted":"0","num_feature":"4","num_nodes":"29","size_leaf_vector":"1"}},{"base_weights":[1.8269498E-3,1.7187776E-1,-3.290223E-2,-1.6347984E-2,2.1825542E-1,6.867587E-3,-2.1749584E-1,1.223531E-1,-1.0590551E-1,1.3373296E-1,-2.0532396E-2,3.3634487E-1,-1.06647775E-1,-1.4323135E-1,1.2448967E-2,-4.1551862E-2,1.6157871E-1,1.03490226E-1,-1.5752504E-2],"categories":[],"categories_nodes":[],"categories_segments":[],"categories_sizes":[],"default_left":[0,0,0,0,0,0,0,0,0,0,0,0,0,0,0,0,0,0,0],"id":22,"left_children":[1,3,5,7,-1,9,-1,11,-1,-1,13,15,-1,-1,17,-1,-1,-1,-1],"loss_changes":[2.821279E-1,8.590428E-1,1.0980778E0,3.7139735E-1,0E0,4.727205E-1,0E0,7.045025E-1,0E0,0E0,5.670935E-1,5.033967E-1,0E0,0E0,7.8933173E-1,0E0,0E0,0E0,0E0],"parents":[2147483647,0,0,1,1,2,2,3,3,5,5,7,7,10,10,11,11,14,14],"right_children":[2,4,6,8,-1,10,-1,12,-1,-1,14,16,-1,-1,18,-1,-1,-1,-1],"split_conditions":[1.5357209E1,1.5350128E1,4.331E-4,1.5340754E1,2.1825542E-1,1.54271755E1,-2.1749584E-1,8.3552366E-1,-1.0590551E-1,1.3373296E-1,5.217789E-1,5.609376E-1,-1.06647775E-1,-1.4323135E-1,5.877767E-1,-4.1551862E-2,1.6157871E-1,1.03490226E-1,-1.5752504E-2],"split_indices":[2,2,1,2,0,2,0,3,0,0,3,3,0,0,3,0,0,0,0],"split_type":[0,0,0,0,0,0,0,0,0,0,0,0,0,0,0,0,0,0,0],"sum_hessian":[4.5814358E1,7.100042E0,3.8714317E1,6.0284534E0,1.0715886E0,3.7546806E1,1.1675078E0,4.7203484E0,1.3081049E0,1.3090152E0,3.6237793E1,3.4648297E0,1.2555187E0,1.5324262E0,3.4705368E1,1.1290905E0,2.3357391E0,4.96724E0,2.9738127E1],"tree_param":{"num_deleted":"0","num_feature":"4","num_nodes":"19","size_leaf_vector":"1"}},{"base_weights":[1.1148369E-3,-3.078217E-2,1.6429779E-1,3.835143E-2,-2.6701492E-1,2.1504E-1,-8.6962715E-2,-2.4881677E-1,9.4906844E-2,-4.631141E-1,1.9021639E-1,-1.5071028E-1,1.3012837E-1,5.5563956E-2,-4.4868132E-1,-1.5929567E-2,4.177052E-1,-7.2892195E-1,-1.315573E-1,-6.1820578E-2,1.24660835E-1,-1.5472382E-2,-2.2188203E-1,2.6790747E-2,-1.2019856E-1,2.1107385E-2,2.1952194E-1,-6.234879E-2,-3.2486072E-1,-1.7986414E-1,1.1650596E-1,-1.5684356E-1,1.3609636E-1],"categories":[],"categories_nodes":[],"categories_segments":[],"categories_sizes":[],"default_left":[0,0,0,0,0,0,0,0,0,0,0,0,0,0,0,0,0,0,0,0,0,0,0,0,0,0,0,0,0,0,0,0,0],"id":23,"left_children":[1,3,5,7,9,-1,11,13,15,17,-1,-1,19,-1,21,23,25,27,29,31,-1,-1,-1,-1,-1,-1,-1,-1,-1,-1,-1,-1,-1],"loss_changes":[2.4485758E-1,6.533797E-1,1.1299716E0,5.3258765E-1,1.8911848E0,0E0,6.2253964E-1,5.5435973E-1,9.6930623E-1,6.094147E-1,0E0,0E0,2.9150027E-1,0E0,4.2533988E-1,8.856833E-1,7.026857E-1,5.5359745E-1,1.3961912E0,1.1333902E0,0E0,0E0,0E0,0E0,0E0,0E0,0E0,0E0,0E0,0E0,0E0,0E0,0E0],"parents":[2147483647,0,0,1,1,2,2,3,3,4,4,6,6,7,7,8,8,9,9,12,12,14,14,15,15,16,16,17,17,18,18,19,19],"right_children":[2,4,6,8,10,-1,12,14,16,18,-1,-1,20,-1,22,24,26,28,30,32,-1,-1,-1,-1,-1,-1,-1,-1,-1,-1,-1,-1,-1],"split_conditions":[1.5871058E1,1.5820596E1,1.5873707E1,1.115E-4,4.30022E1,2.1504E-1,4.30007E1,9.91E-5,1.57735E1,1.5847536E1,1.9021639E-1,-1.5071028E-1,8.7288284E-1,5.5563956E-2,7.2040606E-1,1.5670873E1,4.30002E1,4.29994E1,8.375908E-1,4.30011E1,1.24660835E-1,-1.5472382E-2,-2.2188203E-1,2.6790747E-2,-1.2019856E-1,2.1107385E-2,2.1952194E-1,-6.234879E-2,-3.2486072E-1,-1.7986414E-1,1.1650596E-1,-1.5684356E-1,1.3609636E-1],"split_indices":[2,2,2,1,0,0,0,1,2,2,0,0,3,0,3,2,0,0,3,0,0,0,0,0,0,0,0,0,0,0,0,0,0],"split_type":[0,0,0,0,0,0,0,0,0,0,0,0,0,0,0,0,0,0,0,0,0,0,0,0,0,0,0,0,0,0,0,0,0],"sum_hessian":[4.507069E1,3.838E1,6.690689E0,3.033895E1,8.041051E0,1.512345E0,5.1783442E0,4.4325447E0,2.5906404E1,7.0030265E0,1.0380249E0,1.326326E0,3.852018E0,1.4206779E0,3.011867E0,1.9992432E1,5.9139724E0,3.2217107E0,3.7813156E0,2.7714767E0,1.0805414E0,1.7713252E0,1.2405417E0,1.6301521E1,3.6909113E0,3.3892436E0,2.5247288E0,1.9451593E0,1.2765515E0,1.9094124E0,1.8719032E0,1.4555447E0,1.3159322E0],"tree_param":{"num_deleted":"0","num_feature":"4","num_nodes":"33","size_leaf_vector":"1"}},{"base_weights":[-1.71472E-3,-1.1120393E-1,1.6204793E-2,1.4366469E-1,-1.3698177E-2,-3.3375594E-1,2.832381E-2,1.3200493E-2,-4.7223496E-1,3.8995364E-1,-1.8783042E-2,-1.986379E-1,-3.6494564E-2,1.9774261E-1,-1.8169748E-2,-2.0718698E-1,1.1497753E-2],"categories":[],"categories_nodes":[],"categories_segments":[],"categories_sizes":[],"default_left":[0,0,0,0,0,0,0,0,0,0,0,0,0,0,0,0,0],"id":24,"left_children":[1,-1,3,-1,5,7,9,-1,11,13,15,-1,-1,-1,-1,-1,-1],"loss_changes":[3.0512223E-1,0E0,6.167463E-1,0E0,5.796837E-1,2.8227514E-1,6.614641E-1,0E0,1.686464E-1,5.821955E-1,1.3665776E0,0E0,0E0,0E0,0E0,0E0,0E0],"parents":[2147483647,0,0,2,2,4,4,5,5,6,6,8,8,9,9,10,10],"right_children":[2,-1,4,-1,6,8,10,-1,12,14,16,-1,-1,-1,-1,-1,-1],"split_conditions":[9.65E-5,-1.1120393E-1,1.008E-4,1.4366469E-1,5.455177E-1,1.5407653E1,5.877767E-1,1.3200493E-2,5.217789E-1,1.548E-4,6.0823166E-1,-1.986379E-1,-3.6494564E-2,1.9774261E-1,-1.8169748E-2,-2.0718698E-1,1.1497753E-2],"split_indices":[1,0,1,0,3,2,3,0,3,1,3,0,0,0,0,0,0],"split_type":[0,0,0,0,0,0,0,0,0,0,0,0,0,0,0,0,0],"sum_hessian":[4.4240494E1,1.1373105E0,4.3103184E1,1.7051712E0,4.1398014E1,3.998823E0,3.739919E1,1.2556849E0,2.743138E0,3.4714558E0,3.3927734E1,1.2029488E0,1.5401893E0,1.8831751E0,1.5882806E0,1.78896E0,3.2138775E1],"tree_param":{"num_deleted":"0","num_feature":"4","num_nodes":"17","size_leaf_vector":"1"}},{"base_weights":[-6.023558E-3,2.7506506E-2,-1.7231321E-1,-3.6681928E-2,2.775072E-1,4.6048477E-2,-2.6862255E-1,7.323101E-2,-1.5393032E-1,-6.0553767E-2,4.54448E-1,-4.005356E-1,6.5360875E-3,-2.5848882E-2,1.7737514E-1,-4.216005E-1,8.84595E-2,2.0472474E-1,1.4679953E-1,-1.4903134E-2,-1.7155977E-1,2.16931E-2,-1.8886823E-2,-1.3374884E-1,2.9147023E-2,-2.7589602E-2,-2.2871788E-1,-9.598214E-2,8.7671205E-2,-7.0251614E-2,1.4155088E-1],"categories":[],"categories_nodes":[],"categories_segments":[],"categories_sizes":[],"default_left":[0,0,0,0,0,0,0,0,0,0,0,0,0,0,0,0,0,0,0,0,0,0,0,0,0,0,0,0,0,0,0],"id":25,"left_children":[1,3,5,7,9,-1,11,13,15,-1,17,19,21,23,-1,25,27,-1,29,-1,-1,-1,-1,-1,-1,-1,-1,-1,-1,-1,-1],"loss_changes":[2.5468448E-1,6.226625E-1,2.8158355E-1,4.140379E-1,7.6300234E-1,0E0,2.3040989E-1,8.780057E-1,1.0393373E0,0E0,3.2680798E-1,2.2755963E-1,1.8345349E-2,8.2173955E-1,0E0,7.738646E-1,8.368057E-1,0E0,5.891304E-1,0E0,0E0,0E0,0E0,0E0,0E0,0E0,0E0,0E0,0E0,0E0,0E0],"parents":[2147483647,0,0,1,1,2,2,3,3,4,4,6,6,7,7,8,8,10,10,11,11,12,12,13,13,15,15,16,16,18,18],"right_children":[2,4,6,8,10,-1,12,14,16,-1,18,20,22,24,-1,26,28,-1,30,-1,-1,-1,-1,-1,-1,-1,-1,-1,-1,-1,-1],"split_conditions":[5.31527E1,4.30022E1,9.91E-5,1.5818928E1,1.5350128E1,4.6048477E-2,9.498E-4,1.577854E1,1.5865332E1,-6.0553767E-2,5.18697E1,5.3153E1,8.64981E1,1.346E-4,1.7737514E-1,4.30013E1,4.30006E1,2.0472474E-1,5.1873E1,-1.4903134E-2,-1.7155977E-1,2.16931E-2,-1.8886823E-2,-1.3374884E-1,2.9147023E-2,-2.7589602E-2,-2.2871788E-1,-9.598214E-2,8.7671205E-2,-7.0251614E-2,1.4155088E-1],"split_indices":[0,0,1,2,2,0,1,2,2,0,0,0,0,1,0,0,0,0,0,0,0,0,0,0,0,0,0,0,0,0,0],"split_type":[0,0,0,0,0,0,0,0,0,0,0,0,0,0,0,0,0,0,0,0,0,0,0,0,0,0,0,0,0,0,0],"sum_hessian":[4.3827488E1,3.716771E1,6.65978E0,3.0253344E1,6.9143653E0,1.3840066E0,5.2757735E0,1.580891E1,1.4444433E1,1.8262073E0,5.088158E0,3.2581425E0,2.017631E0,1.4068227E1,1.7406838E0,6.512906E0,7.9315267E0,2.2228544E0,2.8653038E0,1.4922298E0,1.7659125E0,1.0157095E0,1.0019215E0,2.5924177E0,1.1475809E1,3.956142E0,2.5567641E0,2.450443E0,5.481084E0,1.4478493E0,1.4174546E0],"tree_param":{"num_deleted":"0","num_feature":"4","num_nodes":"31","size_leaf_vector":"1"}},{"base_weights":[-6.35775E-3,6.722873E-2,-7.340898E-2,-4.1536376E-2,3.8601732E-1,-1.9526693E-1,-1.4181364E-2,1.21515185E-1,-1.0157842E-1,-5.8642548E-2,2.5277114E-1,1.3650079E-1,-1.3886228E-1,1.5713038E-2,-3.1099296E-1,7.954098E-2,-9.205389E-2,3.5196334E-1,-1.7329627E-1,-5.6130266E-1,9.02903E-2,-3.8491108E-2,8.473441E-2,-2.1800487E-1,1.691555E-2,-4.4707943E-2,2.29456E-1,-2.3306356E-1,6.733E-2,-2.1813792E-1,-2.0809919E-2,7.1466774E-2,-1.2544122E-1],"categories":[],"categories_nodes":[],"categories_segments":[],"categories_sizes":[],"default_left":[0,0,0,0,0,0,0,0,0,0,0,0,0,0,0,0,0,0,0,0,0,0,0,0,0,0,0,0,0,0,0,0,0],"id":26,"left_children":[1,3,5,7,9,-1,11,-1,13,15,-1,17,19,21,23,-1,-1,25,27,29,31,-1,-1,-1,-1,-1,-1,-1,-1,-1,-1,-1,-1],"loss_changes":[2.2250663E-1,7.6307654E-1,7.962614E-1,4.9610496E-1,1.1818153E0,0E0,4.3945026E-1,0E0,3.9189255E-1,3.83583E-1,0E0,7.7111626E-1,1.2842877E0,4.607659E-1,9.121652E-1,0E0,0E0,1.4801574E0,1.3828431E0,3.2645237E-1,7.857957E-1,0E0,0E0,0E0,0E0,0E0,0E0,0E0,0E0,0E0,0E0,0E0,0E0],"parents":[2147483647,0,0,1,1,2,2,3,3,4,4,6,6,8,8,9,9,11,11,12,12,13,13,14,14,17,17,18,18,19,19,20,20],"right_children":[2,4,6,8,10,-1,12,-1,14,16,-1,18,20,22,24,-1,-1,26,28,30,32,-1,-1,-1,-1,-1,-1,-1,-1,-1,-1,-1,-1],"split_conditions":[7.519048E-1,6.934049E-1,7.7053225E-1,4.29993E1,1.5783678E1,-1.9526693E-1,1.5670898E1,1.21515185E-1,1.5818928E1,1.5506063E1,2.5277114E-1,4.30005E1,4.30006E1,6.0823166E-1,1.5865332E1,7.954098E-2,-9.205389E-2,1.5507429E1,5.18615E1,9.414078E-1,5.31524E1,-3.8491108E-2,8.473441E-2,-2.1800487E-1,1.691555E-2,-4.4707943E-2,2.29456E-1,-2.3306356E-1,6.733E-2,-2.1813792E-1,-2.0809919E-2,7.1466774E-2,-1.2544122E-1],"split_indices":[3,3,3,0,2,0,2,0,2,2,0,0,0,3,2,0,0,2,0,3,0,0,0,0,0,0,0,0,0,0,0,0,0],"split_type":[0,0,0,0,0,0,0,0,0,0,0,0,0,0,0,0,0,0,0,0,0,0,0,0,0,0,0,0,0,0,0,0,0],"sum_hessian":[4.309579E1,2.0545332E1,2.2550459E1,1.5967279E1,4.5780516E0,1.1684278E0,2.1382032E1,1.2113391E0,1.475594E1,2.7607617E0,1.81729E0,9.638589E0,1.1743443E1,1.005127E1,4.7046714E0,1.1683891E0,1.5923727E0,5.604543E0,4.0340457E0,3.6201897E0,8.123253E0,6.864138E0,3.1871312E0,1.7483648E0,2.9563065E0,2.8208559E0,2.7836876E0,1.223705E0,2.8103404E0,2.3499644E0,1.270225E0,6.7040834E0,1.4191698E0],"tree_param":{"num_deleted":"0","num_feature":"4","num_nodes":"33","size_leaf_vector":"1"}},{"base_weights":[-1.0886606E-2,1.4172754E-2,-2.0481507E-1,1.1738831E-1,-7.824448E-2,-1.1586439E-1,3.9109416E-2,4.5533128E-2,1.9354689E-1,-1.6087987E-1,-1.2554339E-2,-4.9621474E-2,6.753727E-2,2.4855559E-1,-6.427898E-2,1.7747171E-1,-1.22911766E-1,1.6263378E-1,-1.4989741E-1,-1.3416713E-1,2.7504163E-2,1.3296406E-1,-8.886826E-2,-1.21719904E-1,1.8037772E-2],"categories":[],"categories_nodes":[],"categories_segments":[],"categories_sizes":[],"default_left":[0,0,0,0,0,0,0,0,0,0,0,0,0,0,0,0,0,0,0,0,0,0,0,0,0],"id":27,"left_children":[1,3,5,7,9,-1,11,13,-1,-1,15,-1,-1,17,19,21,23,-1,-1,-1,-1,-1,-1,-1,-1],"loss_changes":[2.1216121E-1,3.8184655E-1,2.3599666E-1,6.8568003E-1,6.31485E-1,0E0,1.5277956E-1,4.0996096E-1,0E0,0E0,4.3232375E-1,0E0,0E0,1.678506E0,7.734084E-1,1.088111E0,6.960404E-1,0E0,0E0,0E0,0E0,0E0,0E0,0E0,0E0],"parents":[2147483647,0,0,1,1,2,2,3,3,4,4,6,6,7,7,10,10,13,13,14,14,15,15,16,16],"right_children":[2,4,6,8,10,-1,12,14,-1,-1,16,-1,-1,18,20,22,24,-1,-1,-1,-1,-1,-1,-1,-1],"split_conditions":[5.31533E1,7.519048E-1,8.6501E1,7.386292E-1,7.792428E-1,-1.1586439E-1,5.7716143E-1,1.321E-4,1.9354689E-1,-1.6087987E-1,1.5670873E1,-4.9621474E-2,6.753727E-2,1.5873707E1,1.482E-4,4.30005E1,4.30006E1,1.6263378E-1,-1.4989741E-1,-1.3416713E-1,2.7504163E-2,1.3296406E-1,-8.886826E-2,-1.21719904E-1,1.8037772E-2],"split_indices":[0,3,0,3,3,0,3,1,0,0,2,0,0,2,1,0,0,0,0,0,0,0,0,0,0],"split_type":[0,0,0,0,0,0,0,0,0,0,0,0,0,0,0,0,0,0,0,0,0,0,0,0,0],"sum_hessian":[4.2059742E1,3.806758E1,3.99216E0,1.7855541E1,2.0212038E1,1.9549693E0,2.0371907E0,1.6671946E1,1.1835967E0,1.6366931E0,1.8575346E1,1.0231185E0,1.0140723E0,5.408731E0,1.1263214E1,6.600939E0,1.1974406E1,4.0824604E0,1.3262708E0,2.7191124E0,8.544102E0,4.2699084E0,2.3310306E0,4.2267566E0,7.74765E0],"tree_param":{"num_deleted":"0","num_feature":"4","num_nodes":"25","size_leaf_vector":"1"}},{"base_weights":[-1.3116636E-2,-9.376418E-2,2.2239368E-3,2.514752E-1,-4.4067208E-2,1.9564107E-1,-4.515413E-2,1.7933629E-3,-4.02095E-1,-2.2749494E-1,9.4025485E-2,-3.6753602E-2,1.3692549E-1,-1.5856536E-1,-1.466934E-2,2.5627026E-2,-1.17125034E-1,1.1792923E-3,-1.7251211E-1],"categories":[],"categories_nodes":[],"categories_segments":[],"categories_sizes":[],"default_left":[0,0,0,0,0,0,0,0,0,0,0,0,0,0,0,0,0,0,0],"id":28,"left_children":[1,-1,3,5,7,-1,9,11,13,15,-1,17,-1,-1,-1,-1,-1,-1,-1],"loss_changes":[1.9489905E-1,0E0,4.8657998E-1,8.143235E-1,5.853652E-1,0E0,3.8055372E-1,5.8736056E-1,1.5493381E-1,2.2274037E-1,0E0,6.7984664E-1,0E0,0E0,0E0,0E0,0E0,0E0,0E0],"parents":[2147483647,0,0,2,2,3,3,4,4,6,6,7,7,8,8,9,9,11,11],"right_children":[2,-1,4,6,8,-1,10,12,14,16,-1,18,-1,-1,-1,-1,-1,-1,-1],"split_conditions":[9.65E-5,-9.376418E-2,1.5357209E1,8.85E-4,2.226E-4,1.9564107E-1,8.4840894E-1,1.871E-4,1.5778894E1,6.5251154E-1,9.4025485E-2,1.794E-4,1.3692549E-1,-1.5856536E-1,-1.466934E-2,2.5627026E-2,-1.17125034E-1,1.1792923E-3,-1.7251211E-1],"split_indices":[1,0,2,1,1,0,3,1,2,3,0,1,0,0,0,0,0,0,0],"split_type":[0,0,0,0,0,0,0,0,0,0,0,0,0,0,0,0,0,0,0],"sum_hessian":[4.127858E1,1.0675389E0,4.0211044E1,5.604039E0,3.4607002E1,1.874131E0,3.7299082E0,3.1559471E1,3.0475316E0,2.7148895E0,1.0150186E0,2.9940056E1,1.6194162E0,1.8784932E0,1.1690383E0,1.0924113E0,1.6224782E0,2.8759094E1,1.1809614E0],"tree_param":{"num_deleted":"0","num_feature":"4","num_nodes":"19","size_leaf_vector":"1"}},{"base_weights":[-1.1641171E-2,1.5723056E-1,-3.6258098E-2,3.191665E-1,-6.624821E-2,-1.2173695E-1,-3.8279723E-3,1.0408586E-2,1.2928554E-1,-2.2565584E-1,4.2537156E-2,5.130828E-2,-3.410625E-1,3.9600828E-1,1.4388695E-3,-3.0649634E-2,-1.3339096E-1,5.163182E-3,1.7964385E-1,4.078291E-2,-3.340369E-2],"categories":[],"categories_nodes":[],"categories_segments":[],"categories_sizes":[],"default_left":[0,0,0,0,0,0,0,0,0,0,0,0,0,0,0,0,0,0,0,0,0],"id":29,"left_children":[1,3,5,7,-1,-1,9,-1,-1,11,13,-1,15,17,19,-1,-1,-1,-1,-1,-1],"loss_changes":[1.7957573E-1,4.077341E-1,4.456544E-1,1.20696574E-1,0E0,0E0,3.7282637E-1,0E0,0E0,3.4509745E-1,4.359967E-1,0E0,8.290136E-2,2.298823E-1,4.3876448E-1,0E0,0E0,0E0,0E0,0E0,0E0],"parents":[2147483647,0,0,1,1,2,2,3,3,6,6,9,9,10,10,12,12,13,13,14,14],"right_children":[2,4,6,8,-1,-1,10,-1,-1,12,14,-1,16,18,20,-1,-1,-1,-1,-1,-1],"split_conditions":[4.29994E1,1.5821372E1,4.29995E1,1.406E-4,-6.624821E-2,-1.2173695E-1,5.6801546E-1,1.0408586E-2,1.2928554E-1,9.8E-5,4.29996E1,5.130828E-2,1.5670864E1,1.457E-4,7.9923546E-1,-3.0649634E-2,-1.3339096E-1,5.163182E-3,1.7964385E-1,4.078291E-2,-3.340369E-2],"split_indices":[0,2,0,1,0,0,3,0,0,1,0,0,2,1,3,0,0,0,0,0,0],"split_type":[0,0,0,0,0,0,0,0,0,0,0,0,0,0,0,0,0,0,0,0,0],"sum_hessian":[4.0825966E1,4.5087714E0,3.6317192E1,3.265719E0,1.2430527E0,2.0012133E0,3.431598E1,1.2909311E0,1.9747877E0,5.264023E0,2.9051956E1,1.0777053E0,4.1863174E0,2.1265602E0,2.6925396E1,1.8668243E0,2.319493E0,1.1198224E0,1.0067378E0,1.21866045E1,1.4738792E1],"tree_param":{"num_deleted":"0","num_feature":"4","num_nodes":"21","size_leaf_vector":"1"}},{"base_weights":[-7.216899E-3,2.2398958E-2,-1.4860748E-1,-3.4549434E-2,2.557176E-1,3.1113075E-2,-2.2125423E-1,1.1979737E-2,-2.768978E-1,-3.9237272E-2,3.985968E-1,-3.3720118E-1,1.882372E-2,-3.5682343E-2,1.379524E-1,1.0151552E-1,-2.2122094E-1,5.430572E-1,2.6205445E-2,-2.0322945E-2,-1.5757129E-1,-3.0890513E-2,6.585446E-2,1.0910814E-1,-8.064088E-2,3.5755467E-2,2.0390324E-1],"categories":[],"categories_nodes":[],"categories_segments":[],"categories_sizes":[],"default_left":[0,0,0,0,0,0,0,0,0,0,0,0,0,0,0,0,0,0,0,0,0,0,0,0,0,0,0],"id":30,"left_children":[1,3,5,7,9,-1,11,13,15,-1,17,19,-1,21,-1,23,-1,25,-1,-1,-1,-1,-1,-1,-1,-1,-1],"loss_changes":[1.7700602E-1,4.7603795E-1,1.5701348E-1,3.3195847E-1,4.3967223E-1,0E0,2.1866956E-1,5.587841E-1,9.0011466E-1,0E0,1.9404101E-1,1.881743E-1,0E0,4.3287146E-1,0E0,4.3549448E-1,0E0,1.2031174E-1,0E0,0E0,0E0,0E0,0E0,0E0,0E0,0E0,0E0],"parents":[2147483647,0,0,1,1,2,2,3,3,4,4,6,6,7,7,8,8,10,10,11,11,13,13,15,15,17,17],"right_children":[2,4,6,8,10,-1,12,14,16,-1,18,20,-1,22,-1,24,-1,26,-1,-1,-1,-1,-1,-1,-1,-1,-1],"split_conditions":[5.31527E1,4.30022E1,9.91E-5,1.794E-4,1.5350128E1,3.1113075E-2,1.017E-3,4.30016E1,8.493596E-1,-3.9237272E-2,5.18712E1,7.2040606E-1,1.882372E-2,1.5871058E1,1.379524E-1,2.195E-4,-2.2122094E-1,7.3936844E-1,2.6205445E-2,-2.0322945E-2,-1.5757129E-1,-3.0890513E-2,6.585446E-2,1.0910814E-1,-8.064088E-2,3.5755467E-2,2.0390324E-1],"split_indices":[0,0,1,1,2,0,1,0,3,0,0,3,0,2,0,1,0,3,0,0,0,0,0,0,0,0,0],"split_type":[0,0,0,0,0,0,0,0,0,0,0,0,0,0,0,0,0,0,0,0,0,0,0,0,0,0,0],"sum_hessian":[4.0476154E1,3.4162098E1,6.314057E0,2.814451E1,6.017587E0,1.3159355E0,4.9981213E0,2.4408768E1,3.7357426E0,1.6469524E0,4.370635E0,3.4161162E0,1.5820051E0,2.2892809E1,1.5159587E0,2.4785707E0,1.2571718E0,2.4764397E0,1.894195E0,1.9631581E0,1.4529582E0,1.8588282E1,4.3045263E0,1.461644E0,1.0169266E0,1.0600264E0,1.4164134E0],"tree_param":{"num_deleted":"0","num_feature":"4","num_nodes":"27","size_leaf_vector":"1"}},{"base_weights":[-2.9774627E-3,-8.829512E-2,1.2088499E-2,1.0921038E-1,-1.174108E-2,-5.3957064E-2,2.389913E-1,-3.7021495E-3,-2.842244E-1,2.0486979E-1,-3.5109823E-3,-4.7317483E-2,2.9108228E-2,-1.3542517E-1,2.970863E-2,-6.252646E-2,8.19003E-2],"categories":[],"categories_nodes":[],"categories_segments":[],"categories_sizes":[],"default_left":[0,0,0,0,0,0,0,0,0,0,0,0,0,0,0,0,0],"id":31,"left_children":[1,-1,3,-1,5,7,9,11,13,-1,15,-1,-1,-1,-1,-1,-1],"loss_changes":[1.8376555E-1,0E0,3.397253E-1,0E0,4.1967532E-1,3.8901797E-1,6.183907E-1,4.603013E-1,4.308003E-1,0E0,3.229484E-1,0E0,0E0,0E0,0E0,0E0,0E0],"parents":[2147483647,0,0,2,2,4,4,5,5,6,6,7,7,8,8,10,10],"right_children":[2,-1,4,-1,6,8,10,12,14,-1,16,-1,-1,-1,-1,-1,-1],"split_conditions":[9.65E-5,-8.829512E-2,1.008E-4,1.0921038E-1,9.401943E-1,1.5867649E1,9.476588E-1,1.5665793E1,1.728E-4,2.0486979E-1,1.568E-4,-4.7317483E-2,2.9108228E-2,-1.3542517E-1,2.970863E-2,-6.252646E-2,8.19003E-2],"split_indices":[1,0,1,0,3,2,3,2,1,0,1,0,0,0,0,0,0],"split_type":[0,0,0,0,0,0,0,0,0,0,0,0,0,0,0,0,0],"sum_hessian":[4.005603E1,1.058178E0,3.8997852E1,1.5676837E0,3.7430172E1,3.2707916E1,4.7222524E0,2.7682419E1,5.0254984E0,1.0267328E0,3.6955194E0,1.0721953E1,1.6960466E1,3.375216E0,1.6502825E0,2.264011E0,1.4315085E0],"tree_param":{"num_deleted":"0","num_feature":"4","num_nodes":"17","size_leaf_vector":"1"}},{"base_weights":[8.3818974E-4,1.5153891E-1,-2.1904303E-2,9.9047646E-2,-4.6630204E-2,-9.039548E-2,2.4030686E-3,-1.1760144E-1,7.8000695E-2,-3.2421604E-1,-5.1324917E-3,4.0306193E-1,-4.5454398E-2,1.7083643E-2,-1.3264497E-1,8.916811E-2,-4.4490896E-2,1.6097094E-1,-1.8264862E-2,-7.2800085E-2,2.8819503E-2],"categories":[],"categories_nodes":[],"categories_segments":[],"categories_sizes":[],"default_left":[0,0,0,0,0,0,0,0,0,0,0,0,0,0,0,0,0,0,0,0,0],"id":32,"left_children":[1,3,5,-1,-1,-1,7,9,11,13,15,17,19,-1,-1,-1,-1,-1,-1,-1,-1],"loss_changes":[1.4277765E-1,3.507936E-1,2.4678186E-1,0E0,0E0,0E0,3.2053694E-1,3.1584376E-1,8.874563E-1,2.4094474E-1,4.7106123E-1,4.0819216E-1,4.8646992E-1,0E0,0E0,0E0,0E0,0E0,0E0,0E0,0E0],"parents":[2147483647,0,0,1,1,2,2,6,6,7,7,8,8,9,9,10,10,11,11,12,12],"right_children":[2,4,6,-1,-1,-1,8,10,12,14,16,18,20,-1,-1,-1,-1,-1,-1,-1,-1],"split_conditions":[4.29994E1,7.519048E-1,4.29995E1,9.9047646E-2,-4.6630204E-2,-9.039548E-2,7.0347947E-1,4.30005E1,7.9923546E-1,5.6749773E-1,4.30012E1,5.31522E1,8.8317853E-1,1.7083643E-2,-1.3264497E-1,8.916811E-2,-4.4490896E-2,1.6097094E-1,-1.8264862E-2,-7.2800085E-2,2.8819503E-2],"split_indices":[0,3,0,0,0,0,3,0,3,3,0,0,3,0,0,0,0,0,0,0,0],"split_type":[0,0,0,0,0,0,0,0,0,0,0,0,0,0,0,0,0,0,0,0,0],"sum_hessian":[3.9690304E1,4.4617486E0,3.5228558E1,2.7727969E0,1.6889518E0,1.9073493E0,3.3321205E1,1.2663463E1,2.0657743E1,3.799943E0,8.86352E0,5.062685E0,1.5595058E1,1.020106E0,2.779837E0,2.5024984E0,6.3610215E0,3.8098109E0,1.2528741E0,6.2168803E0,9.378179E0],"tree_param":{"num_deleted":"0","num_feature":"4","num_nodes":"21","size_leaf_vector":"1"}},{"base_weights":[5.314166E-4,1.4000684E-1,-2.8239856E-2,3.7693056E-1,-1.3877662E-1,1.3949688E-2,-3.7549168E-1,7.4861E-2,1.9412096E-1,-1.0778145E-1,1.8551454E-2,-1.7624222E-2,1.18855886E-1,-1.4467092E-1,-1.687904E-2,-4.3920547E-2,7.611388E-2,1.6770774E-2,-1.4596035E-1,-5.282335E-3,1.3002612E-1],"categories":[],"categories_nodes":[],"categories_segments":[],"categories_sizes":[],"default_left":[0,0,0,0,0,0,0,0,0,0,0,0,0,0,0,0,0,0,0,0,0],"id":33,"left_children":[1,3,5,7,9,11,13,15,-1,-1,-1,17,-1,-1,-1,-1,-1,19,-1,-1,-1],"loss_changes":[1.6570789E-1,5.18684E-1,5.069817E-1,2.849897E-1,1.9803926E-1,3.8716817E-1,1.0051614E-1,1.5823342E-1,0E0,0E0,0E0,4.9290124E-1,0E0,0E0,0E0,0E0,0E0,4.2256844E-1,0E0,0E0,0E0],"parents":[2147483647,0,0,1,1,2,2,3,3,4,4,5,5,6,6,7,7,11,11,17,17],"right_children":[2,4,6,8,10,12,14,16,-1,-1,-1,18,-1,-1,-1,-1,-1,20,-1,-1,-1],"split_conditions":[1.5357209E1,8.59965E1,2.226E-4,5.18669E1,8.6501E1,1.871E-4,1.5778894E1,1.0429E-3,1.9412096E-1,-1.0778145E-1,1.8551454E-2,1.794E-4,1.18855886E-1,-1.4467092E-1,-1.687904E-2,-4.3920547E-2,7.611388E-2,1.736E-4,-1.4596035E-1,-5.282335E-3,1.3002612E-1],"split_indices":[2,0,1,0,0,1,2,1,0,0,0,1,0,0,0,0,0,1,0,0,0],"split_type":[0,0,0,0,0,0,0,0,0,0,0,0,0,0,0,0,0,0,0,0,0],"sum_hessian":[3.9308678E1,6.060892E0,3.3247787E1,3.0861106E0,2.9747815E0,3.0501785E1,2.7460017E0,2.059877E0,1.0262336E0,1.0404145E0,1.9343671E0,2.9055595E1,1.4461892E0,1.6752077E0,1.0707941E0,1.0018704E0,1.0580066E0,2.7968328E1,1.0872679E0,2.6721247E1,1.2470816E0],"tree_param":{"num_deleted":"0","num_feature":"4","num_nodes":"21","size_leaf_vector":"1"}},{"base_weights":[2.4287521E-3,1.2515348E-1,-2.9865533E-2,2.7727497E-1,-1.2126791E-1,-2.3375921E-1,2.0047212E-2,1.4655313E-1,1.0224985E-1,-9.327411E-2,1.4893314E-2,-4.521648E-1,7.543166E-2,1.4635785E-1,-4.6552848E-2,3.017013E-1,-7.615375E-2,-4.779954E-2,-1.6774082E-1,9.0846054E-2,-4.5655634E-2,-1.4388749E-1,8.668092E-3,1.1599681E-1,2.6213007E-2,9.038536E-2,-2.4152022E-2],"categories":[],"categories_nodes":[],"categories_segments":[],"categories_sizes":[],"default_left":[0,0,0,0,0,0,0,0,0,0,0,0,0,0,0,0,0,0,0,0,0,0,0,0,0,0,0],"id":34,"left_children":[1,3,5,7,9,11,13,-1,15,-1,-1,17,19,-1,21,23,-1,-1,-1,-1,-1,-1,25,-1,-1,-1,-1],"loss_changes":[1.6158023E-1,3.5185748E-1,3.337719E-1,1.5536433E-1,1.4301415E-1,4.6887213E-1,8.607657E-1,0E0,3.8210684E-1,0E0,0E0,3.3578932E-2,2.2838527E-1,0E0,5.890883E-1,2.4739534E-2,0E0,0E0,0E0,0E0,0E0,0E0,6.159446E-1,0E0,0E0,0E0,0E0],"parents":[2147483647,0,0,1,1,2,2,3,3,4,4,5,5,6,6,8,8,11,11,12,12,14,14,15,15,22,22],"right_children":[2,4,6,8,10,12,14,-1,16,-1,-1,18,20,-1,22,24,-1,-1,-1,-1,-1,-1,26,-1,-1,-1,-1],"split_conditions":[1.54271755E1,8.59965E1,1.5665793E1,1.5340754E1,8.6501E1,8.7358713E-1,1.5670873E1,1.4655313E-1,8.85E-4,-9.327411E-2,1.4893314E-2,7.086232E-1,1.397E-4,1.4635785E-1,1.5724392E1,5.18703E1,-7.615375E-2,-4.779954E-2,-1.6774082E-1,9.0846054E-2,-4.5655634E-2,-1.4388749E-1,5.944179E-1,1.1599681E-1,2.6213007E-2,9.038536E-2,-2.4152022E-2],"split_indices":[2,0,2,2,0,3,2,0,1,0,0,3,1,0,2,0,0,0,0,0,0,0,3,0,0,0,0],"split_type":[0,0,0,0,0,0,0,0,0,0,0,0,0,0,0,0,0,0,0,0,0,0,0,0,0,0,0],"sum_hessian":[3.8825943E1,7.489384E0,3.1336561E1,4.5533137E0,2.93607E0,5.438189E0,2.589837E1,1.2516395E0,3.3016746E0,1.0034695E0,1.9326005E0,2.915987E0,2.522202E0,2.4392657E0,2.3459106E1,2.214225E0,1.0874496E0,1.446282E0,1.4697051E0,1.0964552E0,1.4257469E0,1.7838262E0,2.167528E1,1.0098646E0,1.2043604E0,4.5071216E0,1.7168158E1],"tree_param":{"num_deleted":"0","num_feature":"4","num_nodes":"27","size_leaf_vector":"1"}},{"base_weights":[2.6956531E-3,1.08748406E-1,-3.364172E-2,1.9985697E-1,-1.3240062E-1,-3.382275E-1,1.7064406E-2,2.8582117E-1,-5.5943016E-2,4.5695603E-3,-7.002749E-2,-2.0428274E-2,-1.456987E-1,3.9867476E-1,-3.5858214E-2,5.3988226E-2,1.7275175E-1,3.6382068E-2,1.4882693E-1,-2.8249833E-1,3.864869E-2,8.609032E-2,-1.0112959E-1,2.2991002E-2,-2.0988823E-1,9.456493E-2,-1.8352399E-2],"categories":[],"categories_nodes":[],"categories_segments":[],"categories_sizes":[],"default_left":[0,0,0,0,0,0,0,0,0,0,0,0,0,0,0,0,0,0,0,0,0,0,0,0,0,0,0],"id":35,"left_children":[1,3,5,7,9,11,13,15,-1,-1,-1,-1,-1,17,19,21,-1,-1,-1,23,25,-1,-1,-1,-1,-1,-1],"loss_changes":[1.5503469E-1,2.5189427E-1,4.6941707E-1,3.138557E-1,5.44896E-2,1.3947737E-1,5.532802E-1,4.2694604E-1,0E0,0E0,0E0,0E0,0E0,2.9902399E-2,4.5847568E-1,5.4223704E-1,0E0,0E0,0E0,9.181113E-1,5.5996364E-1,0E0,0E0,0E0,0E0,0E0,0E0],"parents":[2147483647,0,0,1,1,2,2,3,3,4,4,5,5,6,6,7,7,13,13,14,14,15,15,19,19,20,20],"right_children":[2,4,6,8,10,12,14,16,-1,-1,-1,-1,-1,18,20,22,-1,-1,-1,24,26,-1,-1,-1,-1,-1,-1],"split_conditions":[1.5506072E1,8.60169E1,1.5665793E1,1.0997E-3,1.3571996E1,1.541E-4,1.5670873E1,5.957E-4,-5.5943016E-2,4.5695603E-3,-7.002749E-2,-2.0428274E-2,-1.456987E-1,1.5670859E1,1.5777605E1,2.382E-4,1.7275175E-1,3.6382068E-2,1.4882693E-1,1.427E-4,1.5817374E1,8.609032E-2,-1.0112959E-1,2.2991002E-2,-2.0988823E-1,9.456493E-2,-1.8352399E-2],"split_indices":[2,0,2,1,2,1,2,1,0,0,0,0,0,2,2,1,0,0,0,1,2,0,0,0,0,0,0],"split_type":[0,0,0,0,0,0,0,0,0,0,0,0,0,0,0,0,0,0,0,0,0,0,0,0,0,0,0],"sum_hessian":[3.8280964E1,9.260604E0,2.9020359E1,6.8455253E0,2.4150789E0,3.3324387E0,2.568792E1,5.812369E0,1.0331564E0,1.3262223E0,1.0888567E0,1.6927693E0,1.6396693E0,2.3328953E0,2.3355024E1,3.8894207E0,1.9229482E0,1.1897764E0,1.1431187E0,4.770772E0,1.8584253E1,2.604243E0,1.2851776E0,3.0022259E0,1.7685461E0,4.3565044E0,1.4227748E1],"tree_param":{"num_deleted":"0","num_feature":"4","num_nodes":"27","size_leaf_vector":"1"}},{"base_weights":[4.7656172E-4,-1.8312177E-1,2.5212947E-2,3.0600624E-2,-3.568797E-1,-1.0427858E-1,5.5319842E-2,1.0928154E-2,-1.6884063E-1,1.6605768E-1,1.2397004E-2,3.3581698E-1,-3.258161E-2,1.6519912E-1,-1.3007215E-2,-1.6599885E-1,4.991522E-3],"categories":[],"categories_nodes":[],"categories_segments":[],"categories_sizes":[],"default_left":[0,0,0,0,0,0,0,0,0,0,0,0,0,0,0,0,0],"id":36,"left_children":[1,3,5,-1,7,-1,9,-1,-1,-1,11,13,15,-1,-1,-1,-1],"loss_changes":[1.8100658E-1,2.7086365E-1,4.1326723E-1,0E0,2.7665976E-1,0E0,7.062204E-1,0E0,0E0,0E0,4.7242692E-1,3.466103E-1,7.464147E-1,0E0,0E0,0E0,0E0],"parents":[2147483647,0,0,1,1,2,2,4,4,6,6,10,10,11,11,12,12],"right_children":[2,4,6,-1,8,-1,10,-1,-1,-1,12,14,16,-1,-1,-1,-1],"split_conditions":[5.455177E-1,1.321E-4,9.99E-5,3.0600624E-2,1.5436765E1,-1.0427858E-1,1.035E-4,1.0928154E-2,-1.6884063E-1,1.6605768E-1,5.877767E-1,1.548E-4,6.0823166E-1,1.6519912E-1,-1.3007215E-2,-1.6599885E-1,4.991522E-3],"split_indices":[3,1,1,0,2,0,1,0,0,0,3,1,3,0,0,0,0],"split_type":[0,0,0,0,0,0,0,0,0,0,0,0,0,0,0,0,0],"sum_hessian":[3.7838985E1,3.7325242E0,3.410646E1,1.5697105E0,2.1628137E0,1.760548E0,3.2345913E1,1.0260963E0,1.1367173E0,1.6221205E0,3.0723793E1,2.9616704E0,2.7762123E1,1.6017951E0,1.3598753E0,1.512967E0,2.6249155E1],"tree_param":{"num_deleted":"0","num_feature":"4","num_nodes":"17","size_leaf_vector":"1"}},{"base_weights":[-1.860697E-3,1.2628531E-1,-3.970997E-2,-1.376177E-1,3.134165E-1,-2.9967603E-1,5.480698E-3,8.661584E-2,-1.22987255E-1,1.6006456E-1,8.5672356E-2,4.152382E-2,-2.0866938E-1,8.79777E-2,-1.18403584E-1,-1.3370377E-1,1.3433973E-1,-8.019851E-2,1.1527551E-1,-3.2855593E-2,1.8055287E-1,-4.2542052E-1,2.6222046E-2,1.651385E-2,-1.2697192E-1,-1.7053822E-1,-2.7492678E-2,5.4861296E-2,-6.1849423E-2],"categories":[],"categories_nodes":[],"categories_segments":[],"categories_sizes":[],"default_left":[0,0,0,0,0,0,0,0,0,0,0,0,0,0,0,0,0,0,0,0,0,0,0,0,0,0,0,0,0],"id":37,"left_children":[1,3,5,7,9,11,13,-1,-1,-1,15,17,-1,19,21,-1,-1,-1,-1,23,-1,25,27,-1,-1,-1,-1,-1,-1],"loss_changes":[1.9154753E-1,4.8800236E-1,3.5937265E-1,6.329993E-1,2.3383236E-1,6.404214E-1,2.855708E-1,0E0,0E0,0E0,9.561316E-1,4.6000284E-1,0E0,1.0588639E0,5.0793934E-1,0E0,0E0,0E0,0E0,5.207681E-1,0E0,1.217283E-1,3.4885508E-1,0E0,0E0,0E0,0E0,0E0,0E0],"parents":[2147483647,0,0,1,1,2,2,3,3,4,4,5,5,6,6,10,10,11,11,13,13,14,14,19,19,21,21,22,22],"right_children":[2,4,6,8,10,12,14,-1,-1,-1,16,18,-1,20,22,-1,-1,-1,-1,24,-1,26,28,-1,-1,-1,-1,-1,-1],"split_conditions":[4.29996E1,1.5E-4,4.29997E1,1.373E-4,7.1077454E-1,1.5670873E1,1.706E-4,8.661584E-2,-1.22987255E-1,1.6006456E-1,8.0067354E-1,1.56708555E1,-2.0866938E-1,1.626E-4,1.871E-4,-1.3370377E-1,1.3433973E-1,-8.019851E-2,1.1527551E-1,9.476588E-1,1.8055287E-1,1.586824E1,8.403191E-1,1.651385E-2,-1.2697192E-1,-1.7053822E-1,-2.7492678E-2,5.4861296E-2,-6.1849423E-2],"split_indices":[0,1,0,1,3,2,1,0,0,0,3,2,0,1,1,0,0,0,0,3,0,2,3,0,0,0,0,0,0],"split_type":[0,0,0,0,0,0,0,0,0,0,0,0,0,0,0,0,0,0,0,0,0,0,0,0,0,0,0,0,0],"sum_hessian":[3.745851E1,8.008308E0,2.9450205E1,3.4323735E0,4.5759354E0,3.527332E0,2.5922873E1,1.3144734E0,2.1179001E0,1.6440663E0,2.931869E0,2.3752851E0,1.1520469E0,1.5734677E1,1.0188194E1,1.0947727E0,1.8370962E0,1.365106E0,1.010179E0,1.349698E1,2.2376976E0,2.640759E0,7.5474353E0,1.1717562E1,1.7794178E0,1.3563769E0,1.2843821E0,4.635667E0,2.9117684E0],"tree_param":{"num_deleted":"0","num_feature":"4","num_nodes":"29","size_leaf_vector":"1"}},{"base_weights":[-5.892743E-3,-1.8796021E-1,2.2245128E-2,-3.6603352E-4,-2.9698133E-1,-8.403255E-2,4.7063008E-2,-3.0372655E-3,-1.3184823E-1,1.3140808E-1,1.1591492E-2,3.43494E-1,-2.6088908E-2,1.8362685E-1,-2.1871716E-2,-8.6722255E-2,1.8362626E-2],"categories":[],"categories_nodes":[],"categories_segments":[],"categories_sizes":[],"default_left":[0,0,0,0,0,0,0,0,0,0,0,0,0,0,0,0,0],"id":38,"left_children":[1,3,5,-1,7,-1,9,-1,-1,-1,11,13,15,-1,-1,-1,-1],"loss_changes":[1.982095E-1,1.05005756E-1,2.660481E-1,0E0,1.2897268E-1,0E0,4.3867835E-1,0E0,0E0,0E0,3.886985E-1,3.9875388E-1,6.650534E-1,0E0,0E0,0E0,0E0],"parents":[2147483647,0,0,1,1,2,2,4,4,6,6,10,10,11,11,12,12],"right_children":[2,4,6,-1,8,-1,10,-1,-1,-1,12,14,16,-1,-1,-1,-1],"split_conditions":[5.493164E-1,1.321E-4,9.99E-5,-3.6603352E-4,1.54271755E1,-8.403255E-2,1.035E-4,-3.0372655E-3,-1.3184823E-1,1.3140808E-1,5.877767E-1,1.548E-4,1.347E-4,1.8362685E-1,-2.1871716E-2,-8.6722255E-2,1.8362626E-2],"split_indices":[3,1,1,0,2,0,1,0,0,0,3,1,1,0,0,0,0],"split_type":[0,0,0,0,0,0,0,0,0,0,0,0,0,0,0,0,0],"sum_hessian":[3.6874027E1,4.1756043E0,3.269842E1,1.9119151E0,2.2636893E0,1.7000716E0,3.099835E1,1.1068349E0,1.1568544E0,1.6344868E0,2.9363863E1,2.166303E0,2.7197561E1,1.0311872E0,1.1351159E0,6.202149E0,2.099541E1],"tree_param":{"num_deleted":"0","num_feature":"4","num_nodes":"17","size_leaf_vector":"1"}},{"base_weights":[-4.0321047E-3,-3.098868E-2,1.5487167E-1,9.379621E-2,-6.4368956E-2,1.5559329E-1,-6.9389276E-2,1.2926379E-2,-2.1740732E-1,-8.119835E-2,6.692811E-2,8.0263E-2,-2.7724147E-1,-2.9937294E-1,2.8008385E-2,-1.1799767E-2,1.0913049E-1,-1.6397746E-1,1.764671E-2,-1.2267455E-1,2.0085696E-2],"categories":[],"categories_nodes":[],"categories_segments":[],"categories_sizes":[],"default_left":[0,0,0,0,0,0,0,0,0,0,0,0,0,0,0,0,0,0,0,0,0],"id":39,"left_children":[1,3,5,-1,7,-1,9,11,13,-1,-1,15,17,19,-1,-1,-1,-1,-1,-1,-1],"loss_changes":[1.6546021E-1,3.9752096E-1,4.9337566E-1,0E0,3.6734575E-1,0E0,3.164842E-1,4.4075876E-1,2.9280064E-1,0E0,0E0,6.300499E-1,4.1765693E-1,3.6707318E-1,0E0,0E0,0E0,0E0,0E0,0E0,0E0],"parents":[2147483647,0,0,1,1,2,2,4,4,6,6,7,7,8,8,11,11,12,12,13,13],"right_children":[2,4,6,-1,8,-1,10,12,14,-1,-1,16,18,20,-1,-1,-1,-1,-1,-1,-1],"split_conditions":[9.414078E-1,1.008E-4,9.5086384E-1,9.379621E-2,1.5820596E1,1.5559329E-1,1.568E-4,5.3153E1,4.30016E1,-8.119835E-2,6.692811E-2,1.5776877E1,9.498E-4,1.736E-4,2.8008385E-2,-1.1799767E-2,1.0913049E-1,-1.6397746E-1,1.764671E-2,-1.2267455E-1,2.0085696E-2],"split_indices":[3,1,3,0,2,0,1,0,0,0,0,2,1,1,0,0,0,0,0,0,0],"split_type":[0,0,0,0,0,0,0,0,0,0,0,0,0,0,0,0,0,0,0,0,0],"sum_hessian":[3.650692E1,3.1900309E1,4.606612E0,2.083606E0,2.9816704E1,1.2562205E0,3.3503916E0,2.041912E1,9.397583E0,2.0288496E0,1.3215419E0,1.716028E1,3.2588396E0,7.4652762E0,1.932307E0,1.2674751E1,4.4855294E0,1.4612324E0,1.7976073E0,5.657309E0,1.8079672E0],"tree_param":{"num_deleted":"0","num_feature":"4","num_nodes":"21","size_leaf_vector":"1"}},{"base_weights":[-3.0248073E-5,-1.4076263E-1,2.8257428E-2,-2.6015753E-1,2.728728E-2,1.22692406E-1,-2.149258E-3,-8.229497E-2,-1.264655E-1,-1.10731706E-1,2.9618934E-2,-6.521574E-2,2.0771703E-2,1.3401756E-1,-4.8472816E-3,-1.4707515E-1,1.0369615E-2],"categories":[],"categories_nodes":[],"categories_segments":[],"categories_sizes":[],"default_left":[0,0,0,0,0,0,0,0,0,0,0,0,0,0,0,0,0],"id":40,"left_children":[1,3,5,7,-1,-1,9,11,-1,-1,13,-1,-1,-1,15,-1,-1],"loss_changes":[1.5129256E-1,1.9963084E-1,3.672034E-1,9.323993E-2,0E0,0E0,3.641395E-1,8.3889194E-2,0E0,0E0,4.16344E-1,0E0,0E0,0E0,5.449736E-1,0E0,0E0],"parents":[2147483647,0,0,1,1,2,2,3,3,6,6,7,7,10,10,14,14],"right_children":[2,4,6,8,-1,-1,10,12,-1,-1,14,-1,-1,-1,16,-1,-1],"split_conditions":[5.6801546E-1,1.5778894E1,5.877767E-1,1.5670864E1,2.728728E-2,1.22692406E-1,6.0823166E-1,1.459E-4,-1.264655E-1,-1.10731706E-1,6.2869483E-1,-6.521574E-2,2.0771703E-2,1.3401756E-1,6.43632E-1,-1.4707515E-1,1.0369615E-2],"split_indices":[3,2,3,2,0,0,3,1,0,0,3,0,0,0,3,0,0],"split_type":[0,0,0,0,0,0,0,0,0,0,0,0,0,0,0,0,0],"sum_hessian":[3.600459E1,5.360377E0,3.064421E1,3.4566166E0,1.9037602E0,1.3456305E0,2.929858E1,2.3627143E0,1.0939021E0,1.4883091E0,2.7810272E1,1.0193803E0,1.343334E0,1.2096747E0,2.6600597E1,1.1386137E0,2.5461983E1],"tree_param":{"num_deleted":"0","num_feature":"4","num_nodes":"17","size_leaf_vector":"1"}},{"base_weights":[-3.6544134E-3,7.132737E-2,-5.2274007E-2,-2.8398423E-2,1.2635112E-1,-1.1423464E-1,1.6048271E-2,7.1042515E-2,-1.6070399E-1,2.5671762E-1,-6.5441325E-2,-3.321282E-2,1.507943E-1,1.379801E-1,5.647371E-2,3.9500836E-2,-2.4451448E-1,-5.026756E-2,4.83889E-2,-1.24529935E-1,1.2498466E-1,-3.585533E-2,1.7126486E-1,-1.3545135E-1,3.0641414E-2],"categories":[],"categories_nodes":[],"categories_segments":[],"categories_sizes":[],"default_left":[0,0,0,0,0,0,0,0,0,0,0,0,0,0,0,0,0,0,0,0,0,0,0,0,0],"id":41,"left_children":[1,3,5,7,-1,-1,9,11,-1,13,15,17,-1,-1,19,21,23,-1,-1,-1,-1,-1,-1,-1,-1],"loss_changes":[1.3772897E-1,5.3115356E-1,5.195351E-1,6.694843E-1,0E0,0E0,4.070105E-1,5.273498E-1,0E0,1.8708968E-1,3.0395675E-1,2.903974E-1,0E0,0E0,8.144342E-1,9.7533256E-1,4.7129697E-1,0E0,0E0,0E0,0E0,0E0,0E0,0E0,0E0],"parents":[2147483647,0,0,1,1,2,2,3,3,6,6,7,7,9,9,10,10,11,11,14,14,15,15,16,16],"right_children":[2,4,6,8,-1,-1,10,12,-1,14,16,18,-1,-1,20,22,24,-1,-1,-1,-1,-1,-1,-1,-1],"split_conditions":[1.427E-4,1.347E-4,1.512E-4,1.293E-4,1.2635112E-1,-1.1423464E-1,4.29996E1,1.223E-4,-1.6070399E-1,7.1077454E-1,8.5146654E-1,1.5871058E1,1.507943E-1,1.379801E-1,1.568E-4,1.5865332E1,4.30021E1,-5.026756E-2,4.83889E-2,-1.24529935E-1,1.2498466E-1,-3.585533E-2,1.7126486E-1,-1.3545135E-1,3.0641414E-2],"split_indices":[1,1,1,1,0,0,0,1,0,3,3,2,0,0,1,2,0,0,0,0,0,0,0,0,0],"split_type":[0,0,0,0,0,0,0,0,0,0,0,0,0,0,0,0,0,0,0,0,0,0,0,0,0],"sum_hessian":[3.5756912E1,1.3881549E1,2.1875362E1,1.1517275E1,2.3642745E0,2.9788914E0,1.8896471E1,1.0348619E1,1.1686556E0,4.235914E0,1.4660556E1,9.078687E0,1.2699322E0,1.458698E0,2.7772162E0,9.734983E0,4.925573E0,5.4517617E0,3.6269252E0,1.1364871E0,1.6407292E0,8.089302E0,1.6456809E0,2.8946662E0,2.0309067E0],"tree_param":{"num_deleted":"0","num_feature":"4","num_nodes":"25","size_leaf_vector":"1"}},{"base_weights":[2.3661952E-3,-1.6781302E-1,2.5649427E-2,2.2995992E-2,-9.719298E-2,-7.152903E-2,4.7554754E-2,1.2078748E-1,1.4793991E-2,-2.703274E-2,2.2017197E-1,6.27277E-3,-1.255737E-1,6.7091696E-3,1.4665696E-1],"categories":[],"categories_nodes":[],"categories_segments":[],"categories_sizes":[],"default_left":[0,0,0,0,0,0,0,0,0,0,0,0,0,0,0],"id":42,"left_children":[1,3,5,-1,-1,-1,7,-1,9,11,13,-1,-1,-1,-1],"loss_changes":[1.4776902E-1,1.9625226E-1,2.0059872E-1,0E0,0E0,0E0,3.5516834E-1,0E0,2.590266E-1,4.8491958E-1,2.598053E-1,0E0,0E0,0E0,0E0],"parents":[2147483647,0,0,1,1,2,2,6,6,8,8,9,9,10,10],"right_children":[2,4,6,-1,-1,-1,8,-1,10,12,14,-1,-1,-1,-1],"split_conditions":[5.4571944E-1,1.364E-4,9.99E-5,2.2995992E-2,-9.719298E-2,-7.152903E-2,1.035E-4,1.2078748E-1,9.414078E-1,9.209128E-1,1.5847263E1,6.27277E-3,-1.255737E-1,6.7091696E-3,1.4665696E-1],"split_indices":[3,1,1,0,0,0,1,0,3,3,2,0,0,0,0],"split_type":[0,0,0,0,0,0,0,0,0,0,0,0,0,0,0],"sum_hessian":[3.5207237E1,3.4901268E0,3.171711E1,1.5588975E0,1.9312294E0,1.6722871E0,3.0044823E1,1.5842655E0,2.8460556E1,2.4366512E1,4.0940433E0,2.2551807E1,1.8147058E0,2.9819434E0,1.1120999E0],"tree_param":{"num_deleted":"0","num_feature":"4","num_nodes":"15","size_leaf_vector":"1"}},{"base_weights":[1.8652029E-3,6.2259197E-2,-9.7232565E-2,1.1453009E-1,-1.1764418E-1,-1.8164858E-1,1.4571576E-1,2.2425555E-2,5.233741E-1,5.807453E-2,-2.668244E-1,-3.593468E-2,-4.612614E-1,-9.885301E-2,1.2469021E-1,8.832145E-2,-1.02861516E-1,3.2431066E-2,2.0804274E-1,-4.5041335E-1,4.3223143E-2,1.5321219E-1,-1.3121258E-1,-2.4066535E-1,5.8453545E-2,6.0423585E-3,1.2109939E-1,-2.1093278E-1,1.2756088E-2,-4.5497417E-2,1.661646E-1],"categories":[],"categories_nodes":[],"categories_segments":[],"categories_sizes":[],"default_left":[0,0,0,0,0,0,0,0,0,0,0,0,0,0,0,0,0,0,0,0,0,0,0,0,0,0,0,0,0,0,0],"id":43,"left_children":[1,3,5,7,9,11,13,15,17,-1,19,21,23,-1,-1,25,-1,-1,-1,27,-1,29,-1,-1,-1,-1,-1,-1,-1,-1,-1],"loss_changes":[2.212482E-1,2.2929335E-1,3.137086E-1,6.770054E-1,3.1445205E-1,4.2505324E-1,6.7139834E-1,4.1475707E-1,1.5941566E-1,0E0,3.852527E-1,6.904281E-1,9.681203E-1,0E0,0E0,2.9988965E-1,0E0,0E0,0E0,4.2570567E-1,0E0,8.5616946E-1,0E0,0E0,0E0,0E0,0E0,0E0,0E0,0E0,0E0],"parents":[2147483647,0,0,1,1,2,2,3,3,4,4,5,5,6,6,7,7,8,8,10,10,11,11,12,12,15,15,19,19,21,21],"right_children":[2,4,6,8,10,12,14,16,18,-1,20,22,24,-1,-1,26,-1,-1,-1,28,-1,30,-1,-1,-1,-1,-1,-1,-1,-1,-1],"split_conditions":[1.5817374E1,9.1147995E-1,9.0886384E-1,8.4840894E-1,4.29996E1,1.706E-4,1.5847525E1,8.0264723E-1,1.522E-4,5.807453E-2,1.57244215E1,1.5873707E1,1.5901979E1,-9.885301E-2,1.2469021E-1,7.75075E-1,-1.02861516E-1,3.2431066E-2,2.0804274E-1,9.401943E-1,4.3223143E-2,4.30006E1,-1.3121258E-1,-2.4066535E-1,5.8453545E-2,6.0423585E-3,1.2109939E-1,-2.1093278E-1,1.2756088E-2,-4.5497417E-2,1.661646E-1],"split_indices":[2,3,3,3,0,1,2,3,1,0,2,2,2,0,0,3,0,0,0,3,0,0,0,0,0,0,0,0,0,0,0],"split_type":[0,0,0,0,0,0,0,0,0,0,0,0,0,0,0,0,0,0,0,0,0,0,0,0,0,0,0,0,0,0,0],"sum_hessian":[3.495619E1,2.1950468E1,1.3005721E1,1.7290188E1,4.6602807E0,9.839245E0,3.1664765E0,1.49721155E1,2.3180728E0,1.4135782E0,3.2467024E0,7.2102838E0,2.6289608E0,1.0670395E0,2.099437E0,1.3326391E1,1.6457245E0,1.1488645E0,1.1692083E0,2.177601E0,1.0691013E0,5.3213606E0,1.8889232E0,1.5834178E0,1.0455432E0,1.1832056E1,1.4943347E0,1.1577294E0,1.0198717E0,3.3748903E0,1.9464703E0],"tree_param":{"num_deleted":"0","num_feature":"4","num_nodes":"31","size_leaf_vector":"1"}},{"base_weights":[1.5508872E-3,1.15469724E-1,-3.9164662E-2,1.7949404E-1,-4.280156E-2,-3.0966684E-1,7.154924E-3,-4.442315E-2,2.9993808E-1,-1.316486E-1,-2.3521168E-2,1.0951331E-1,-4.0798735E-2,-6.8454206E-2,4.998161E-2,1.3786548E-1,3.50878E-2,-1.5853313E-1,3.2204106E-2,4.9992304E-2,-3.3372566E-2,-4.80208E-3,-1.7337547E-1,-3.1594284E-2,8.3962925E-2],"categories":[],"categories_nodes":[],"categories_segments":[],"categories_sizes":[],"default_left":[0,0,0,0,0,0,0,0,0,0,0,0,0,0,0,0,0,0,0,0,0,0,0,0,0],"id":44,"left_children":[1,3,5,7,-1,9,11,13,15,-1,-1,-1,17,-1,-1,-1,19,21,23,-1,-1,-1,-1,-1,-1],"loss_changes":[1.6802143E-1,1.8319155E-1,3.3694696E-1,2.3131034E-1,0E0,8.2936436E-2,4.2312777E-1,1.8141775E-1,2.1150577E-1,0E0,0E0,0E0,1.9312681E-1,0E0,0E0,0E0,7.835722E-2,5.013092E-1,5.176911E-1,0E0,0E0,0E0,0E0,0E0,0E0],"parents":[2147483647,0,0,1,1,2,2,3,3,5,5,6,6,7,7,8,8,12,12,16,16,17,17,18,18],"right_children":[2,4,6,8,-1,10,12,14,16,-1,-1,-1,18,-1,-1,-1,20,22,24,-1,-1,-1,-1,-1,-1],"split_conditions":[1.5506072E1,1.0997E-3,1.5665793E1,7.0347947E-1,-4.280156E-2,8.24626E-1,1.5670873E1,5.18729E1,8.3552366E-1,-1.316486E-1,-2.3521168E-2,1.0951331E-1,4.30005E1,-6.8454206E-2,4.998161E-2,1.3786548E-1,1.5357209E1,4.30002E1,8.8317853E-1,4.9992304E-2,-3.3372566E-2,-4.80208E-3,-1.7337547E-1,-3.1594284E-2,8.3962925E-2],"split_indices":[2,1,2,3,0,3,2,0,3,0,0,0,0,0,0,0,2,0,3,0,0,0,0,0,0],"split_type":[0,0,0,0,0,0,0,0,0,0,0,0,0,0,0,0,0,0,0,0,0,0,0,0,0],"sum_hessian":[3.4250027E1,8.534677E0,2.5715351E1,7.0826945E0,1.4519825E0,2.928388E0,2.2786963E1,2.6980078E0,4.3846865E0,1.3030794E0,1.6253089E0,1.9111513E0,2.0875813E1,1.3987435E0,1.2992643E0,2.277189E0,2.1074977E0,7.5415964E0,1.3334215E1,1.036689E0,1.0708086E0,6.403547E0,1.1380497E0,8.943295E0,4.39092E0],"tree_param":{"num_deleted":"0","num_feature":"4","num_nodes":"25","size_leaf_vector":"1"}},{"base_weights":[-1.2393461E-3,6.890393E-2,-6.780196E-2,-2.222558E-2,3.1195268E-1,-1.2091922E-1,-2.3983687E-3,9.514377E-2,-2.2759642E-1,-1.9157067E-2,1.9691004E-1,2.4309868E-1,-7.063975E-2,-3.5755035E-2,2.9821107E-1,-1.2591471E-1,2.029645E-2,6.1027907E-2,-6.490482E-2,-4.4327747E-2,1.916168E-1,8.579934E-2,-1.993486E-1,-5.3198606E-2,9.7197786E-2,1.23326145E-1,9.992352E-3,-3.9217055E-2,5.391442E-2,-6.299698E-2,6.441865E-2,-1.8764414E-1,-6.0723135E-3],"categories":[],"categories_nodes":[],"categories_segments":[],"categories_sizes":[],"default_left":[0,0,0,0,0,0,0,0,0,0,0,0,0,0,0,0,0,0,0,0,0,0,0,0,0,0,0,0,0,0,0,0,0],"id":45,"left_children":[1,3,5,7,9,-1,11,13,15,17,-1,19,21,23,25,-1,27,-1,-1,-1,-1,29,31,-1,-1,-1,-1,-1,-1,-1,-1,-1,-1],"loss_changes":[1.6738093E-1,3.937481E-1,4.0217033E-1,3.5032314E-1,5.6326437E-1,0E0,2.917547E-1,2.6004326E-1,2.58716E-1,1.9472131E-1,0E0,6.804578E-1,2.9093784E-1,3.9347067E-1,9.946251E-2,0E0,1.0168155E-1,0E0,0E0,0E0,0E0,3.0585462E-1,5.79769E-1,0E0,0E0,0E0,0E0,0E0,0E0,0E0,0E0,0E0,0E0],"parents":[2147483647,0,0,1,1,2,2,3,3,4,4,6,6,7,7,8,8,9,9,11,11,12,12,13,13,14,14,16,16,21,21,22,22],"right_children":[2,4,6,8,10,-1,12,14,16,18,-1,20,22,24,26,-1,28,-1,-1,-1,-1,30,32,-1,-1,-1,-1,-1,-1,-1,-1,-1,-1],"split_conditions":[7.519048E-1,6.934049E-1,7.881811E-1,1.5818928E1,1.5783678E1,-1.2091922E-1,4.29996E1,6.0823166E-1,1.5865332E1,1.5506063E1,1.9691004E-1,1.568E-4,1.594E-4,1.5778894E1,4.30008E1,-1.2591471E-1,4.30008E1,6.1027907E-2,-6.490482E-2,-4.4327747E-2,1.916168E-1,1.018E-4,1.672E-4,-5.3198606E-2,9.7197786E-2,1.23326145E-1,9.992352E-3,-3.9217055E-2,5.391442E-2,-6.299698E-2,6.441865E-2,-1.8764414E-1,-6.0723135E-3],"split_indices":[3,3,3,2,2,0,0,3,2,2,0,1,1,2,0,0,0,0,0,0,0,1,1,0,0,0,0,0,0,0,0,0,0],"split_type":[0,0,0,0,0,0,0,0,0,0,0,0,0,0,0,0,0,0,0,0,0,0,0,0,0,0,0,0,0,0,0,0,0],"sum_hessian":[3.3849407E1,1.6464277E1,1.738513E1,1.2635308E1,3.8289697E0,1.9951535E0,1.53899765E1,8.381823E0,4.2534857E0,2.433679E0,1.3952907E0,2.7901459E0,1.2599831E1,5.5975327E0,2.7842894E0,2.005822E0,2.2476637E0,1.1283853E0,1.3052937E0,1.7186837E0,1.0714623E0,5.837739E0,6.762092E0,4.38066E0,1.2168726E0,1.5654202E0,1.2188692E0,1.2466681E0,1.0009958E0,1.5812727E0,4.2564664E0,1.2635808E0,5.4985113E0],"tree_param":{"num_deleted":"0","num_feature":"4","num_nodes":"33","size_leaf_vector":"1"}},{"base_weights":[2.3612948E-3,2.9902449E-2,-1.7986403E-1,-5.725752E-3,1.4842387E-1,-3.1738126E-1,4.548713E-2,2.5412578E-2,-9.403413E-2,-1.6170712E-1,3.307356E-2,6.1482124E-2,-2.0585713E-1,3.682797E-2,-2.161891E-2,-1.0729129E-1,3.360525E-2],"categories":[],"categories_nodes":[],"categories_segments":[],"categories_sizes":[],"default_left":[0,0,0,0,0,0,0,0,0,0,0,0,0,0,0,0,0],"id":46,"left_children":[1,3,5,7,-1,9,-1,11,-1,-1,-1,13,15,-1,-1,-1,-1],"loss_changes":[1.7747945E-1,5.1039606E-1,2.598614E-1,2.9019076E-1,0E0,4.0122584E-1,0E0,2.4349359E-1,0E0,0E0,0E0,2.1104723E-1,2.312915E-1,0E0,0E0,0E0,0E0],"parents":[2147483647,0,0,1,1,2,2,3,3,5,5,7,7,11,11,12,12],"right_children":[2,4,6,8,-1,10,-1,12,-1,-1,-1,14,16,-1,-1,-1,-1],"split_conditions":[1.5873707E1,1.5871058E1,8.8317853E-1,1.5863554E1,1.4842387E-1,1.159E-4,4.548713E-2,9.4741803E-1,-9.403413E-2,-1.6170712E-1,3.307356E-2,1.776E-4,1.545E-4,3.682797E-2,-2.161891E-2,-1.0729129E-1,3.360525E-2],"split_indices":[2,2,3,2,0,1,0,3,0,0,0,1,1,0,0,0,0],"split_type":[0,0,0,0,0,0,0,0,0,0,0,0,0,0,0,0,0],"sum_hessian":[3.329199E1,2.9647093E1,3.6448953E0,2.845391E1,1.1931831E0,2.606251E0,1.0386443E0,2.6672352E1,1.7815591E0,1.5449758E0,1.0612754E0,2.3708807E1,2.9635456E0,1.630702E1,7.401786E0,1.9211395E0,1.042406E0],"tree_param":{"num_deleted":"0","num_feature":"4","num_nodes":"17","size_leaf_vector":"1"}},{"base_weights":[-1.1577058E-3,1.12138264E-1,-4.274304E-2,-4.8898645E-2,1.6633953E-1,-2.9515508E-1,6.430214E-4,2.7880815E-1,-8.061441E-2,-2.3121925E-2,-1.20773375E-1,8.51029E-2,-3.6590487E-2,2.7277658E-2,5.125864E-1,-7.528833E-2,2.9529752E-2,-3.3980508E-3,-9.527572E-2,7.719449E-2,-5.630656E-2,2.0309389E-2,2.126393E-1,-2.1739399E-2,8.741389E-2],"categories":[],"categories_nodes":[],"categories_segments":[],"categories_sizes":[],"default_left":[0,0,0,0,0,0,0,0,0,0,0,0,0,0,0,0,0,0,0,0,0,0,0,0,0],"id":47,"left_children":[1,3,5,-1,7,9,11,13,15,-1,-1,-1,17,19,21,-1,-1,23,-1,-1,-1,-1,-1,-1,-1],"loss_changes":[1.6515042E-1,1.675069E-1,2.8077143E-1,0E0,2.5467098E-1,5.7060957E-2,2.512967E-1,3.3696875E-1,1.2814896E-1,0E0,0E0,0E0,1.9561619E-1,2.426941E-1,2.1713138E-1,0E0,0E0,4.256919E-1,0E0,0E0,0E0,0E0,0E0,0E0,0E0],"parents":[2147483647,0,0,1,1,2,2,4,4,5,5,6,6,7,7,8,8,12,12,13,13,14,14,17,17],"right_children":[2,4,6,-1,8,10,12,14,16,-1,-1,-1,18,20,22,-1,-1,24,-1,-1,-1,-1,-1,-1,-1],"split_conditions":[1.5506072E1,1.3400127E1,1.5665793E1,-4.8898645E-2,8.3552366E-1,1.541E-4,1.5670873E1,7.0347947E-1,9.110416E-1,-2.3121925E-2,-1.20773375E-1,8.51029E-2,5.3153E1,1.5340754E1,5.18679E1,-7.528833E-2,2.9529752E-2,4.30022E1,-9.527572E-2,7.719449E-2,-5.630656E-2,2.0309389E-2,2.126393E-1,-2.1739399E-2,8.741389E-2],"split_indices":[2,2,2,0,3,1,2,3,3,0,0,0,0,2,0,0,0,0,0,0,0,0,0,0,0],"split_type":[0,0,0,0,0,0,0,0,0,0,0,0,0,0,0,0,0,0,0,0,0,0,0,0,0],"sum_hessian":[3.3035652E1,8.414479E0,2.462117E1,1.0544922E0,7.3599873E0,2.7601478E0,2.1861023E1,4.9683123E0,2.391675E0,1.477701E0,1.282447E0,1.7720217E0,2.0089E1,2.9312048E0,2.0371075E0,1.0197891E0,1.3718858E0,1.8871864E1,1.2171373E0,1.3208014E0,1.6104035E0,1.035116E0,1.0019916E0,1.5900531E1,2.9713333E0],"tree_param":{"num_deleted":"0","num_feature":"4","num_nodes":"25","size_leaf_vector":"1"}},{"base_weights":[1.5546152E-3,3.0254254E-2,-1.2503172E-1,-2.8703704E-3,1.2690595E-1,4.8560753E-2,-2.1885157E-1,8.0641165E-2,-7.474569E-2,1.0471868E-2,-3.6217633E-1,-4.056187E-3,1.5538238E-1,-1.5134914E-1,-4.227156E-3,-3.505465E-2,-1.3759354E-1,7.9509646E-2,-1.7755639E-2,1.1708253E-1,-2.1307642E-2],"categories":[],"categories_nodes":[],"categories_segments":[],"categories_sizes":[],"default_left":[0,0,0,0,0,0,0,0,0,0,0,0,0,0,0,0,0,0,0,0,0],"id":48,"left_children":[1,3,5,7,-1,-1,9,11,13,-1,15,17,-1,-1,19,-1,-1,-1,-1,-1,-1],"loss_changes":[1.2616743E-1,3.689648E-1,2.0825432E-1,1.6845953E-1,0E0,0E0,2.0408246E-1,4.8353514E-1,4.5435083E-1,0E0,2.809766E-2,1.9194387E-1,0E0,0E0,3.9527684E-1,0E0,0E0,0E0,0E0,0E0,0E0],"parents":[2147483647,0,0,1,1,2,2,3,3,6,6,7,7,8,8,10,10,11,11,14,14],"right_children":[2,4,6,8,-1,-1,10,12,14,-1,16,18,-1,-1,20,-1,-1,-1,-1,-1,-1],"split_conditions":[5.31527E1,5.1873E1,9.91E-5,7.519048E-1,1.2690595E-1,4.8560753E-2,1.4636992E1,7.263325E-1,7.792428E-1,1.0471868E-2,5.3153E1,4.29993E1,1.5538238E-1,-1.5134914E-1,8.0264723E-1,-3.505465E-2,-1.3759354E-1,7.9509646E-2,-1.7755639E-2,1.1708253E-1,-2.1307642E-2],"split_indices":[0,0,1,3,0,0,2,3,3,0,0,0,0,0,3,0,0,0,0,0,0],"split_type":[0,0,0,0,0,0,0,0,0,0,0,0,0,0,0,0,0,0,0,0,0],"sum_hessian":[3.2687115E1,2.7266302E1,5.4208136E0,2.6061083E1,1.2052189E0,1.1570961E0,4.263717E0,1.199833E1,1.4062753E1,1.8120031E0,2.451714E0,1.0881499E1,1.1168311E0,1.1148103E0,1.2947943E1,1.3160806E0,1.1356335E0,1.2028534E0,9.678646E0,1.1736902E0,1.1774252E1],"tree_param":{"num_deleted":"0","num_feature":"4","num_nodes":"21","size_leaf_vector":"1"}},{"base_weights":[6.3356156E-3,2.060888E-2,-6.243751E-2,-2.3985555E-2,1.2753683E-1,1.8163247E-2,-1.0959151E-1,-3.9694607E-2,1.4392366E-1,-3.813256E-2,1.2544489E-1,1.0526573E-1,-1.7335454E-1,1.0306716E-2,-1.6187064E-1,3.799721E-2,-9.7277716E-2],"categories":[],"categories_nodes":[],"categories_segments":[],"categories_sizes":[],"default_left":[0,0,0,0,0,0,0,0,0,0,0,0,0,0,0,0,0],"id":49,"left_children":[1,3,-1,5,7,9,-1,11,-1,13,-1,-1,15,-1,-1,-1,-1],"loss_changes":[1.0636266E-1,1.5648173E-1,0E0,3.4539086E-1,5.86117E-1,5.09343E-1,0E0,4.498417E-1,0E0,7.5003403E-1,0E0,0E0,3.227195E-1,0E0,0E0,0E0,0E0],"parents":[2147483647,0,0,1,1,3,3,4,4,5,5,7,7,9,9,12,12],"right_children":[2,4,-1,6,8,10,-1,12,-1,14,-1,-1,16,-1,-1,-1,-1],"split_conditions":[1.5904622E1,8.8317853E-1,-6.243751E-2,1.5873707E1,1.5847525E1,1.5865332E1,-1.0959151E-1,9.1147995E-1,1.4392366E-1,1.5847523E1,1.2544489E-1,1.0526573E-1,4.29996E1,1.0306716E-2,-1.6187064E-1,3.799721E-2,-9.7277716E-2],"split_indices":[2,3,0,2,2,2,0,3,0,2,0,0,0,0,0,0,0],"split_type":[0,0,0,0,0,0,0,0,0,0,0,0,0,0,0,0,0],"sum_hessian":[3.2345856E1,3.1174936E1,1.1709201E0,2.2547258E1,8.627677E0,2.0911703E1,1.6355557E0,6.451671E0,2.1760058E0,1.9124678E1,1.7870245E0,1.2305504E0,5.221121E0,1.7523014E1,1.6016647E0,1.801083E0,3.420038E0],"tree_param":{"num_deleted":"0","num_feature":"4","num_nodes":"17","size_leaf_vector":"1"}},{"base_weights":[4.367095E-3,3.1235602E-2,-1.1454932E-1,-2.176567E-2,2.364631E-1,4.0612876E-2,-1.9671044E-1,2.242273E-2,-2.4473244E-1,-4.9786284E-3,1.4021069E-1,5.9398967E-3,-3.4035796E-1,-2.9132562E-2,2.5706285E-1,2.3548841E-2,-1.690309E-1,-8.56915E-2,6.0384914E-2,-3.5704304E-2,3.813057E-2,-1.2346965E-1,-2.9528491E-2,5.6877498E-2,-3.324612E-2,-3.954936E-2,1.4053398E-1],"categories":[],"categories_nodes":[],"categories_segments":[],"categories_sizes":[],"default_left":[0,0,0,0,0,0,0,0,0,0,0,0,0,0,0,0,0,0,0,0,0,0,0,0,0,0,0],"id":50,"left_children":[1,3,5,7,9,-1,11,13,15,17,-1,19,21,23,25,-1,-1,-1,-1,-1,-1,-1,-1,-1,-1,-1,-1],"loss_changes":[1.0883843E-1,3.0599487E-1,1.5570691E-1,2.3108287E-1,3.235119E-1,0E0,1.5160206E-1,2.4974173E-1,4.430164E-1,2.7780792E-1,0E0,6.227667E-2,1.1587232E-2,3.304097E-1,3.6667985E-1,0E0,0E0,0E0,0E0,0E0,0E0,0E0,0E0,0E0,0E0,0E0,0E0],"parents":[2147483647,0,0,1,1,2,2,3,3,4,4,6,6,7,7,8,8,9,9,11,11,12,12,13,13,14,14],"right_children":[2,4,6,8,10,-1,12,14,16,18,-1,20,22,24,26,-1,-1,-1,-1,-1,-1,-1,-1,-1,-1,-1,-1],"split_conditions":[5.31527E1,4.30022E1,9.91E-5,1.794E-4,1.5366823E1,4.0612876E-2,7.3267305E-1,1.672E-4,8.493596E-1,5.957E-4,1.4021069E-1,5.7716143E-1,9.899E-4,6.2869483E-1,8.2946616E-1,2.3548841E-2,-1.690309E-1,-8.56915E-2,6.0384914E-2,-3.5704304E-2,3.813057E-2,-1.2346965E-1,-2.9528491E-2,5.6877498E-2,-3.324612E-2,-3.954936E-2,1.4053398E-1],"split_indices":[0,0,1,1,2,0,3,1,3,1,0,3,1,3,3,0,0,0,0,0,0,0,0,0,0,0,0],"split_type":[0,0,0,0,0,0,0,0,0,0,0,0,0,0,0,0,0,0,0,0,0,0,0,0,0,0,0],"sum_hessian":[3.1944258E1,2.6658295E1,5.2859635E0,2.1897161E1,4.7611337E0,1.1475484E0,4.138415E0,1.9025959E1,2.8712022E0,2.8057747E0,1.9553592E0,2.114309E0,2.024106E0,1.6316687E1,2.7092724E0,1.799677E0,1.0715252E0,1.025519E0,1.7802557E0,1.0495918E0,1.0647173E0,1.0220933E0,1.0020127E0,4.077636E0,1.2239051E1,1.0865781E0,1.6226941E0],"tree_param":{"num_deleted":"0","num_feature":"4","num_nodes":"27","size_leaf_vector":"1"}},{"base_weights":[2.8673424E-3,8.971034E-2,-2.9316097E-2,1.763028E-1,-8.8682085E-2,-2.276433E-1,5.361088E-3,-3.5245393E-3,2.5767592E-1,-5.035287E-2,1.6023062E-2,-1.13115154E-1,-2.1522986E-3,6.916191E-2,-2.5143657E-2,1.736164E-3,3.312895E-1,-1.3426743E-1,6.635738E-2,3.0726353E-2,1.2304822E-1,6.4218296E-3,-1.1164944E-1,1.01234116E-1,-1.9215763E-2],"categories":[],"categories_nodes":[],"categories_segments":[],"categories_sizes":[],"default_left":[0,0,0,0,0,0,0,0,0,0,0,0,0,0,0,0,0,0,0,0,0,0,0,0,0],"id":51,"left_children":[1,3,5,7,9,11,13,-1,15,-1,-1,-1,-1,-1,17,-1,19,21,23,-1,-1,-1,-1,-1,-1],"loss_changes":[9.3355365E-2,1.5502322E-1,1.6928825E-1,1.0110554E-1,4.9615525E-2,1.1785287E-1,1.5538748E-1,0E0,8.184233E-2,0E0,0E0,0E0,0E0,0E0,2.094179E-1,0E0,2.0769507E-2,3.5939765E-1,4.314144E-1,0E0,0E0,0E0,0E0,0E0,0E0],"parents":[2147483647,0,0,1,1,2,2,3,3,4,4,5,5,6,6,8,8,14,14,16,16,17,17,18,18],"right_children":[2,4,6,8,10,12,14,-1,16,-1,-1,-1,-1,-1,18,-1,20,22,24,-1,-1,-1,-1,-1,-1],"split_conditions":[1.5506072E1,8.59965E1,1.5665793E1,7.0347947E-1,9.96908E1,8.24626E-1,1.5670873E1,-3.5245393E-3,1.5E-4,-5.035287E-2,1.6023062E-2,-1.13115154E-1,-2.1522986E-3,6.916191E-2,4.30006E1,1.736164E-3,1.5350128E1,7.894484E-1,4.30013E1,3.0726353E-2,1.2304822E-1,6.4218296E-3,-1.1164944E-1,1.01234116E-1,-1.9215763E-2],"split_indices":[2,0,2,3,0,3,2,0,1,0,0,0,0,0,0,0,2,3,0,0,0,0,0,0,0],"split_type":[0,0,0,0,0,0,0,0,0,0,0,0,0,0,0,0,0,0,0,0,0,0,0,0,0],"sum_hessian":[3.1460985E1,8.023393E0,2.3437592E1,5.409373E0,2.6140199E0,2.6599653E0,2.0777626E1,1.8921899E0,3.5171828E0,1.5623802E0,1.0516397E0,1.1621683E0,1.4977971E0,1.6965567E0,1.908107E1,1.0393575E0,2.4778252E0,8.489335E0,1.0591735E1,1.2241569E0,1.2536683E0,5.681522E0,2.8078134E0,2.9246113E0,7.667124E0],"tree_param":{"num_deleted":"0","num_feature":"4","num_nodes":"25","size_leaf_vector":"1"}},{"base_weights":[3.39532E-3,-2.8417628E-2,9.026281E-2,1.1196475E-2,-1.1508659E-1,1.0686713E-1,-2.653206E-2,-1.029106E-1,7.617517E-2,-2.3159E-1,1.1183922E-1,6.615776E-2,-2.1984716E-1,2.8642153E-3,1.398346E-1,6.493476E-3,-1.0821753E-1,1.219109E-1,-8.62789E-2,3.4360584E-2,-1.21575646E-1,2.1015879E-2,-1.16162546E-1,-7.6863274E-2,5.2640125E-2],"categories":[],"categories_nodes":[],"categories_segments":[],"categories_sizes":[],"default_left":[0,0,0,0,0,0,0,0,0,0,0,0,0,0,0,0,0,0,0,0,0,0,0,0,0],"id":52,"left_children":[1,3,5,7,-1,-1,9,11,13,15,17,-1,19,21,-1,-1,-1,-1,23,-1,-1,-1,-1,-1,-1],"loss_changes":[9.1563E-2,3.4668145E-1,2.8504384E-1,1.7735623E-1,0E0,0E0,2.2723013E-1,3.783161E-1,4.3152803E-1,1.11946344E-1,3.216273E-1,0E0,4.745518E-1,3.875422E-1,0E0,0E0,0E0,0E0,2.1223849E-1,0E0,0E0,0E0,0E0,0E0,0E0],"parents":[2147483647,0,0,1,1,2,2,3,3,6,6,7,7,8,8,9,9,10,10,12,12,13,13,18,18],"right_children":[2,4,6,8,-1,-1,10,12,14,16,18,-1,20,22,-1,-1,-1,-1,24,-1,-1,-1,-1,-1,-1],"split_conditions":[8.8492393E-1,8.5864323E-1,9.167561E-1,1.381E-4,-1.1508659E-1,1.0686713E-1,9.401943E-1,1.008E-4,1.5865332E1,1.594E-4,9.5086384E-1,6.615776E-2,5.962487E-1,1.5847531E1,1.398346E-1,6.493476E-3,-1.0821753E-1,1.219109E-1,1.568E-4,3.4360584E-2,-1.21575646E-1,2.1015879E-2,-1.16162546E-1,-7.6863274E-2,5.2640125E-2],"split_indices":[3,3,3,1,0,0,3,1,2,1,3,0,3,2,0,0,0,0,1,0,0,0,0,0,0],"split_type":[0,0,0,0,0,0,0,0,0,0,0,0,0,0,0,0,0,0,0,0,0,0,0,0,0],"sum_hessian":[3.120467E1,2.3332584E1,7.872087E0,2.1862816E1,1.469768E0,1.7765647E0,6.0955224E0,7.720799E0,1.4142016E1,2.1845155E0,3.9110067E0,1.8149484E0,5.9058504E0,1.2751927E1,1.390089E0,1.0188763E0,1.1656393E0,1.1500891E0,2.7609177E0,2.2429242E0,3.6629264E0,1.1578056E1,1.1738709E0,1.6868922E0,1.0740255E0],"tree_param":{"num_deleted":"0","num_feature":"4","num_nodes":"25","size_leaf_vector":"1"}},{"base_weights":[2.6989134E-3,-1.4067498E-1,3.451367E-2,-2.2222413E-1,1.1685746E-2,1.289947E-1,-2.1301098E-4,-4.8439644E-2,-1.1064579E-1,-9.435301E-2,2.9535303E-2,-6.922352E-2,4.491359E-2,-8.636824E-2,6.3599795E-2,1.089721E-1,9.315474E-3],"categories":[],"categories_nodes":[],"categories_segments":[],"categories_sizes":[],"default_left":[0,0,0,0,0,0,0,0,0,0,0,0,0,0,0,0,0],"id":53,"left_children":[1,3,5,7,-1,-1,9,11,-1,-1,13,-1,-1,-1,15,-1,-1],"loss_changes":[1.4957385E-1,9.5941715E-2,3.6770606E-1,9.033853E-2,0E0,0E0,2.4870762E-1,1.4633563E-1,0E0,0E0,2.8114134E-1,0E0,0E0,0E0,2.1079338E-1,0E0,0E0],"parents":[2147483647,0,0,1,1,2,2,3,3,6,6,7,7,10,10,14,14],"right_children":[2,4,6,8,-1,-1,10,12,-1,-1,14,-1,-1,-1,16,-1,-1],"split_conditions":[5.6801546E-1,1.5778894E1,5.877767E-1,5.31522E1,1.1685746E-2,1.289947E-1,6.0823166E-1,4.30001E1,-1.1064579E-1,-9.435301E-2,1.02E-4,-6.922352E-2,4.491359E-2,-8.636824E-2,6.327565E-1,1.089721E-1,9.315474E-3],"split_indices":[3,2,3,0,0,0,3,0,0,0,1,0,0,0,3,0,0],"split_type":[0,0,0,0,0,0,0,0,0,0,0,0,0,0,0,0,0],"sum_hessian":[3.072676E1,4.9586787E0,2.5768082E1,3.2472978E0,1.7113812E0,1.1612967E0,2.4606785E1,2.0946178E0,1.1526799E0,1.2999701E0,